{"learner":{"attributes":{"best_iteration":"99","best_ntree_limit":"100","scikit_learn":"{\"use_label_encoder\": false, \"n_estimators\": 100, \"objective\": \"multi:softprob\", \"max_depth\": null, \"max_leaves\": null, \"max_bin\": null, \"grow_policy\": null, \"learning_rate\": null, \"verbosity\": null, \"booster\": null, \"tree_method\": null, \"gamma\": null, \"min_child_weight\": null, \"max_delta_step\": null, \"subsample\": null, \"sampling_method\": null, \"colsample_bytree\": null, \"colsample_bylevel\": null, \"colsample_bynode\": null, \"reg_alpha\": null, \"reg_lambda\": null, \"scale_pos_weight\": null, \"base_score\": null, \"missing\": NaN, \"num_parallel_tree\": null, \"random_state\": null, \"n_jobs\": 2, \"monotone_constraints\": null, \"interaction_constraints\": null, \"importance_type\": null, \"gpu_id\": null, \"validate_parameters\": null, \"predictor\": null, \"enable_categorical\": false, \"max_cat_to_onehot\": null, \"eval_metric\": null, \"early_stopping_rounds\": null, \"callbacks\": null, \"classes_\": [0, 1, 2, 3], \"n_classes_\": 4, \"_estimator_type\": \"classifier\"}"},"feature_names":["Bin","license_prof","Airport","Allerton-Pelham Gardens","Annadale-Huguenot-Prince's Bay-Eltingville","Arden Heights","Astoria","Auburndale","Baisley Park","Bath Beach","Battery Park City-Lower Manhattan","Bay Ridge","Bayside-Bayside Hills","Bedford","Bedford Park-Fordham North","Bellerose","Belmont","Bensonhurst East","Bensonhurst West","Borough Park","Breezy Point-Belle Harbor-Rockaway Park-Broad Channel","Briarwood-Jamaica Hills","Brighton Beach","Bronxdale","Brooklyn Heights-Cobble Hill","Brownsville","Bushwick North","Bushwick South","Cambria Heights","Canarsie","Carroll Gardens-Columbia Street-Red Hook","Central Harlem North-Polo Grounds","Central Harlem South","Charleston-Richmond Valley-Tottenville","Chinatown","Claremont-Bathgate","Clinton","Clinton Hill","Co-op City","College Point","Corona","Crotona Park East","Crown Heights North","Crown Heights South","Cypress Hills-City Line","DUMBO-Vinegar Hill-Downtown Brooklyn-Boerum Hill","Douglas Manor-Douglaston-Little Neck","Dyker Heights","East Concourse-Concourse Village","East Elmhurst","East Flatbush-Farragut","East Flushing","East Harlem North","East Harlem South","East New York","East New York (Pennsylvania Ave)","East Tremont","East Village","East Williamsburg","Eastchester-Edenwald-Baychester","Elmhurst","Elmhurst-Maspeth","Erasmus","Far Rockaway-Bayswater","Flatbush","Flatlands","Flushing","Fordham South","Forest Hills","Fort Greene","Fresh Meadows-Utopia","Ft. Totten-Bay Terrace-Clearview","Georgetown-Marine Park-Bergen Beach-Mill Basin","Glen Oaks-Floral Park-New Hyde Park","Glendale","Gramercy","Grasmere-Arrochar-Ft. Wadsworth","Gravesend","Great Kills","Greenpoint","Grymes Hill-Clifton-Fox Hills","Hamilton Heights","Hammels-Arverne-Edgemere","Highbridge","Hollis","Homecrest","Hudson Yards-Chelsea-Flatiron-Union Square","Hunters Point-Sunnyside-West Maspeth","Hunts Point","Jackson Heights","Jamaica","Jamaica Estates-Holliswood","Kensington-Ocean Parkway","Kew Gardens","Kew Gardens Hills","Kingsbridge Heights","Laurelton","Lenox Hill-Roosevelt Island","Lincoln Square","Lindenwood-Howard Beach","Longwood","Lower East Side","Madison","Manhattanville","Marble Hill-Inwood","Mariner's Harbor-Arlington-Port Ivory-Graniteville","Maspeth","Melrose South-Mott Haven North","Middle Village","Midtown-Midtown South","Midwood","Morningside Heights","Morrisania-Melrose","Mott Haven-Port Morris","Mount Hope","Murray Hill","Murray Hill-Kips Bay","New Brighton-Silver Lake","New Dorp-Midland Beach","New Springville-Bloomfield-Travis","North Corona","North Riverdale-Fieldston-Riverdale","North Side-South Side","Norwood","Oakland Gardens","Oakwood-Oakwood Beach","Ocean Hill","Ocean Parkway South","Old Astoria","Old Town-Dongan Hills-South Beach","Ozone Park","Park Slope-Gowanus","Parkchester","Pelham Bay-Country Club-City Island","Pelham Parkway","Pomonok-Flushing Heights-Hillcrest","Port Richmond","Prospect Heights","Prospect Lefferts Gardens-Wingate","Queens Village","Queensboro Hill","Queensbridge-Ravenswood-Long Island City","Rego Park","Richmond Hill","Ridgewood","Rikers Island","Rosedale","Rossville-Woodrow","Rugby-Remsen Village","Schuylerville-Throgs Neck-Edgewater Park","Seagate-Coney Island","Sheepshead Bay-Gerritsen Beach-Manhattan Beach","SoHo-TriBeCa-Civic Center-Little Italy","Soundview-Bruckner","Soundview-Castle Hill-Clason Point-Harding Park","South Jamaica","South Ozone Park","Springfield Gardens North","Springfield Gardens South-Brookville","Spuyten Duyvil-Kingsbridge","St. Albans","Stapleton-Rosebank","Starrett City","Steinway","Stuyvesant Heights","Stuyvesant Town-Cooper Village","Sunset Park East","Sunset Park West","Todt Hill-Emerson Hill-Heartland Village-Lighthouse Hill","Turtle Bay-East Midtown","University Heights-Morris Heights","Upper East Side-Carnegie Hill","Upper West Side","Van Cortlandt Village","Van Nest-Morris Park-Westchester Square","Washington Heights North","Washington Heights South","West Brighton","West Concourse","West Farms-Bronx River","West New Brighton-New Brighton-St. George","West Village","Westchester-Unionport","Westerleigh","Whitestone","Williamsbridge-Olinville","Williamsburg","Windsor Terrace","Woodhaven","Woodlawn-Wakefield","Woodside","Yorkville","park-cemetery-etc-Bronx","park-cemetery-etc-Brooklyn","park-cemetery-etc-Manhattan","park-cemetery-etc-Queens"],"feature_types":["int","int","int","int","int","int","int","int","int","int","int","int","int","int","int","int","int","int","int","int","int","int","int","int","int","int","int","int","int","int","int","int","int","int","int","int","int","int","int","int","int","int","int","int","int","int","int","int","int","int","int","int","int","int","int","int","int","int","int","int","int","int","int","int","int","int","int","int","int","int","int","int","int","int","int","int","int","int","int","int","int","int","int","int","int","int","int","int","int","int","int","int","int","int","int","int","int","int","int","int","int","int","int","int","int","int","int","int","int","int","int","int","int","int","int","int","int","int","int","int","int","int","int","int","int","int","int","int","int","int","int","int","int","int","int","int","int","int","int","int","int","int","int","int","int","int","int","int","int","int","int","int","int","int","int","int","int","int","int","int","int","int","int","int","int","int","int","int","int","int","int","int","int","int","int","int","int","int","int","int","int","int","int","int","int","int","int","int","int","int","int","int","int","int","int","int"],"gradient_booster":{"model":{"gbtree_model_param":{"num_parallel_tree":"1","num_trees":"400","size_leaf_vector":"0"},"tree_info":[0,1,2,3,0,1,2,3,0,1,2,3,0,1,2,3,0,1,2,3,0,1,2,3,0,1,2,3,0,1,2,3,0,1,2,3,0,1,2,3,0,1,2,3,0,1,2,3,0,1,2,3,0,1,2,3,0,1,2,3,0,1,2,3,0,1,2,3,0,1,2,3,0,1,2,3,0,1,2,3,0,1,2,3,0,1,2,3,0,1,2,3,0,1,2,3,0,1,2,3,0,1,2,3,0,1,2,3,0,1,2,3,0,1,2,3,0,1,2,3,0,1,2,3,0,1,2,3,0,1,2,3,0,1,2,3,0,1,2,3,0,1,2,3,0,1,2,3,0,1,2,3,0,1,2,3,0,1,2,3,0,1,2,3,0,1,2,3,0,1,2,3,0,1,2,3,0,1,2,3,0,1,2,3,0,1,2,3,0,1,2,3,0,1,2,3,0,1,2,3,0,1,2,3,0,1,2,3,0,1,2,3,0,1,2,3,0,1,2,3,0,1,2,3,0,1,2,3,0,1,2,3,0,1,2,3,0,1,2,3,0,1,2,3,0,1,2,3,0,1,2,3,0,1,2,3,0,1,2,3,0,1,2,3,0,1,2,3,0,1,2,3,0,1,2,3,0,1,2,3,0,1,2,3,0,1,2,3,0,1,2,3,0,1,2,3,0,1,2,3,0,1,2,3,0,1,2,3,0,1,2,3,0,1,2,3,0,1,2,3,0,1,2,3,0,1,2,3,0,1,2,3,0,1,2,3,0,1,2,3,0,1,2,3,0,1,2,3,0,1,2,3,0,1,2,3,0,1,2,3,0,1,2,3,0,1,2,3,0,1,2,3,0,1,2,3,0,1,2,3,0,1,2,3,0,1,2,3,0,1,2,3,0,1,2,3,0,1,2,3],"trees":[{"base_weights":[4.9842295E-1,1.4738617E0,4.3589714E-1,4.4324324E-1,1.5681378E0,3.404374E-1,5.448223E-1,7.7324635E-1,-2.0253165E-1,1.4080782E0,1.6817484E0,4.6890664E-1,2.503449E-1,5.131469E-1,8.3987606E-1,6.831858E-1,1.6923077E0,-2.6200874E-2,-6.3736266E-1,1.4117928E0,-4.347826E-1,1.6895932E0,-5.531915E-1,6.2753576E-1,3.3958986E-1,2.8470606E-1,-3.599687E-2,6.587453E-1,4.469664E-1,8.034661E-1,1.1196823E0,2.170088E-1,8.757842E-1,-3.1358886E-1,4.3575418E-1,1.3288532E0,1.5102041E0,1.696535E0,8.363636E-1,5.5896777E-1,9.064662E-1,2.0195203E-1,4.9395862E-1,2.4423191E-1,4.5702675E-1,-6.7344725E-2,1.9392185E-1,6.4290726E-1,1.3871983E0,3.3930898E-1,6.4618564E-1,8.339495E-1,4.2023346E-1,1.4140846E0,9.1423184E-1,5.8536583E-1,-1.1891892E-1,8.9936304E-1,-4E-1,-3.9370078E-1,2.4390244E-1,4.9411765E-1,-3.529412E-1,1.3855971E0,2.1459228E-1,1.5558698E0,1.3620147E0,1.6983743E0,-3.529412E-1,2.4390244E-1,1.0649351E0,6.36261E-1,2.149158E-1,9.68342E-1,5.754452E-1,-6.305085E-1,2.2488755E-1,5.5635065E-1,-1.8401937E-1,3.9111704E-1,1.260725E-1,5.8406067E-1,3.7762737E-1,-1.1444729E-1,6.2038403E-2,3.192065E-1,-3.0604982E-1,6.4934355E-1,-6.4285713E-1,1.4173913E0,4.390244E-1,3.6000514E-1,-2.4682395E-1,1.2627236E0,6.191774E-1,8.2371694E-1,1.5375723E0,5.313175E-1,-5.4545456E-1,5.217391E-1,1.5271566E0,1.0021882E0,3.483871E-1],"categories":[],"categories_nodes":[],"categories_segments":[],"categories_sizes":[],"default_left":[1,1,1,1,1,1,1,1,1,1,1,1,1,1,1,1,0,1,0,1,0,1,0,1,1,1,1,1,1,1,1,1,1,1,1,1,1,1,1,1,1,1,1,1,1,1,1,1,1,1,1,1,1,1,1,0,0,0,0,0,0,0,0,0,0,0,0,0,0,0,0,0,0,0,0,0,0,0,0,0,0,0,0,0,0,0,0,0,0,0,0,0,0,0,0,0,0,0,0,0,0,0,0],"id":0,"left_children":[1,3,5,7,9,11,13,15,17,19,21,23,25,27,29,31,-1,33,-1,35,-1,37,-1,39,41,43,45,47,49,51,53,55,57,59,61,63,65,67,69,71,73,75,77,79,81,83,85,87,89,91,93,95,97,99,101,-1,-1,-1,-1,-1,-1,-1,-1,-1,-1,-1,-1,-1,-1,-1,-1,-1,-1,-1,-1,-1,-1,-1,-1,-1,-1,-1,-1,-1,-1,-1,-1,-1,-1,-1,-1,-1,-1,-1,-1,-1,-1,-1,-1,-1,-1,-1,-1],"loss_changes":[2.7766113E3,2.6578564E2,4.4479053E2,4.9437767E1,4.331787E1,2.6388354E2,1.8635645E2,1.1528511E1,6.040553E0,7.7956543E0,2.6606934E1,1.9263599E2,1.3194678E2,1.7363965E2,1.8823853E1,1.2492065E1,0E0,7.7371764E0,0E0,6.5410156E0,0E0,7.2250977E0,0E0,8.02207E1,1.09986206E2,8.339349E1,1.0374682E1,6.416382E1,2.660105E2,1.9703491E1,1.2036591E1,5.3440857E0,3.3566208E0,1.6982636E0,1.2043376E0,3.6161194E1,1.0725098E0,6.052246E0,1.6022806E0,9.0029785E1,1.6468567E1,5.247075E1,1.03378784E2,1.6826349E2,2.2737427E1,7.721694E0,1.0918541E1,4.610376E1,2.7880707E0,9.786835E1,7.171289E1,1.0175049E1,1.4074326E1,8.158035E0,6.2515564E0,0E0,0E0,0E0,0E0,0E0,0E0,0E0,0E0,0E0,0E0,0E0,0E0,0E0,0E0,0E0,0E0,0E0,0E0,0E0,0E0,0E0,0E0,0E0,0E0,0E0,0E0,0E0,0E0,0E0,0E0,0E0,0E0,0E0,0E0,0E0,0E0,0E0,0E0,0E0,0E0,0E0,0E0,0E0,0E0,0E0,0E0,0E0,0E0],"parents":[2147483647,0,0,1,1,2,2,3,3,4,4,5,5,6,6,7,7,8,8,9,9,10,10,11,11,12,12,13,13,14,14,15,15,17,17,19,19,21,21,23,23,24,24,25,25,26,26,27,27,28,28,29,29,30,30,31,31,32,32,33,33,34,34,35,35,36,36,37,37,38,38,39,39,40,40,41,41,42,42,43,43,44,44,45,45,46,46,47,47,48,48,49,49,50,50,51,51,52,52,53,53,54,54],"right_children":[2,4,6,8,10,12,14,16,18,20,22,24,26,28,30,32,-1,34,-1,36,-1,38,-1,40,42,44,46,48,50,52,54,56,58,60,62,64,66,68,70,72,74,76,78,80,82,84,86,88,90,92,94,96,98,100,102,-1,-1,-1,-1,-1,-1,-1,-1,-1,-1,-1,-1,-1,-1,-1,-1,-1,-1,-1,-1,-1,-1,-1,-1,-1,-1,-1,-1,-1,-1,-1,-1,-1,-1,-1,-1,-1,-1,-1,-1,-1,-1,-1,-1,-1,-1,-1,-1],"split_conditions":[2.395E2,1.45E2,3.008917E6,1.125E2,2.0128605E6,1.0407565E6,5.0012765E6,4.73467E6,1.295E2,5E-1,5E-1,1.86735E4,5E-1,2.4955E3,5.1746995E6,8.65E1,5.0769234E-1,1.26E2,-1.9120881E-1,2.195E2,-1.3043478E-1,5E-1,-1.6595745E-1,1.0341955E6,6.128655E5,6.172525E5,6.18316E5,5E-1,6.17486E5,5E-1,1.852E3,2.4E1,4.6206115E6,5E-1,4.6235785E6,2.17E2,2.305E2,5E-1,1.91E2,1.0263175E6,1.0386445E6,1.8933E4,6.23085E5,1.3286E4,6.20018E5,1.047473E6,6.229715E5,5E-1,2.3875E3,6.171965E5,3.0230855E6,6.22678E5,5.1744355E6,8.76E2,6.162835E5,1.7560975E-1,-3.567568E-2,2.6980892E-1,-1.20000005E-1,-1.1811024E-1,7.317074E-2,1.482353E-1,-1.0588236E-1,4.1567916E-1,6.437769E-2,4.6676096E-1,4.086044E-1,5.095123E-1,-1.0588236E-1,7.317074E-2,3.1948054E-1,1.908783E-1,6.447474E-2,2.905026E-1,1.7263356E-1,-1.8915255E-1,6.746627E-2,1.669052E-1,-5.5205815E-2,1.1733512E-1,3.782175E-2,1.7521821E-1,1.1328822E-1,-3.4334186E-2,1.8611522E-2,9.5761955E-2,-9.181495E-2,1.9480307E-1,-1.9285715E-1,4.2521742E-1,1.3170733E-1,1.08001545E-1,-7.4047185E-2,3.7881708E-1,1.8575323E-1,2.4711509E-1,4.612717E-1,1.5939525E-1,-1.6363637E-1,1.5652174E-1,4.58147E-1,3.0065647E-1,1.0451613E-1],"split_indices":[1,1,0,1,0,0,0,0,1,35,150,1,171,1,0,1,0,1,0,1,0,69,0,0,1,1,1,166,1,161,1,1,0,152,0,1,1,83,1,0,0,1,1,1,1,0,1,150,1,1,0,1,0,1,1,0,0,0,0,0,0,0,0,0,0,0,0,0,0,0,0,0,0,0,0,0,0,0,0,0,0,0,0,0,0,0,0,0,0,0,0,0,0,0,0,0,0,0,0,0,0,0,0],"split_type":[0,0,0,0,0,0,0,0,0,0,0,0,0,0,0,0,0,0,0,0,0,0,0,0,0,0,0,0,0,0,0,0,0,0,0,0,0,0,0,0,0,0,0,0,0,0,0,0,0,0,0,0,0,0,0,0,0,0,0,0,0,0,0,0,0,0,0,0,0,0,0,0,0,0,0,0,0,0,0,0,0,0,0,0,0,0,0,0,0,0,0,0,0,0,0,0,0,0,0,0,0,0,0],"sum_hessian":[4.5535125E4,2.741625E3,4.27935E4,2.3025E2,2.511375E3,2.2808625E4,1.9984875E4,1.5225E2,7.8E1,1.048125E3,1.46325E3,9.400125E3,1.34085E4,1.8049875E4,1.935E3,1.4025E2,1.2E1,5.625E1,2.175E1,1.04625E3,1.875E0,1.458375E3,4.875E0,4.219875E3,5.18025E3,1.1971875E4,1.436625E3,5.63775E3,1.2412125E4,1.715625E3,2.19375E2,4.1625E1,9.8625E1,3.4875E1,2.1375E1,5.75625E2,4.70625E2,1.445625E3,1.275E1,3.389625E3,8.3025E2,2.73975E3,2.4405E3,9.69675E3,2.275125E3,1.264875E3,1.7175E2,5.519625E3,1.18125E2,8.0595E3,4.352625E3,1.588125E3,1.275E2,8.775E1,1.31625E2,1.95E1,2.2125E1,9.7125E1,1.5E0,3.075E1,4.125E0,2.025E1,1.125E0,5.475E2,2.8125E1,3.525E2,1.18125E2,1.4445E3,1.125E0,4.125E0,8.625E0,2.767125E3,6.225E2,6.97875E2,1.32375E2,7.275E1,2.667E3,2.235E3,2.055E2,4.321875E3,5.374875E3,8.72625E2,1.4025E3,9.27375E2,3.375E2,1.37625E2,3.4125E1,5.492625E3,2.7E1,1.14E2,4.125E0,7.785E3,2.745E2,1.8075E2,4.171875E3,1.5675E3,2.0625E1,1.1475E2,1.275E1,1.05E1,7.725E1,1.1325E2,1.8375E1],"tree_param":{"num_deleted":"0","num_feature":"196","num_nodes":"103","size_leaf_vector":"0"}},{"base_weights":[3.977117E-1,-1.913313E-1,4.3545315E-1,6.8540543E-1,-2.7195382E-1,5.647476E-1,3.2822743E-1,4.0130505E-1,1.227848E0,-1.22721314E-1,-3.7869215E-1,6.474929E-1,4.2406955E-1,3.450095E-1,-3.6663834E-2,5.462012E-1,-1.5384616E-1,1.2552167E0,-3.529412E-1,-5.6252703E-2,-2.0375761E-1,-3.866381E-1,1.6595745E0,6.158449E-1,1.0115355E0,4.63772E-1,3.2093637E-2,4.465498E-1,3.0323488E-1,1.0936518E-1,-1.2838238E-1,-4.347826E-1,5.651721E-1,-2.4793388E-1,7.692308E-1,1.091703E0,1.6300578E0,-1.1052991E-1,9.6995705E-1,-2.4700071E-1,-7.345226E-2,-3.9612165E-1,-5.91716E-2,6.034668E-1,9.255814E-1,1.213928E0,7.7467513E-1,-1.9517796E-1,4.8643938E-1,1.7864078E-2,5.032258E-1,4.5656204E-1,-1.3213886E-1,3.4434053E-1,2.3714879E-1,1.8088872E-2,4.667697E-1,-1.4709468E-1,4.966443E-1,7.986348E-1,4.5697328E-1,-8.092485E-2,-5.974026E-1,1.0588236E0,1.1764706E-1,1.3310105E0,6.592179E-1,1.6962025E0,6.086956E-1,-1.5626892E-1,2.719855E-2,1.0430622E0,2.5E-1,-2.635432E-1,1.8181819E-1,-9.139214E-2,8E-1,-4.0149426E-1,1.8181819E-1,-2.1428572E-1,2.2950819E-1,4.6605858E-1,6.222164E-1,1.0820312E0,6.9142854E-1,3.0985916E-1,1.2271186E0,-4.6153846E-1,7.8188384E-1,-2.1390375E-3,-4.1472393E-1,5.5470043E-1,4.2675963E-1,-2.478929E-2,1.7081851E-1,-3.529412E-1,5.753425E-1,6.261398E-1,4.2860064E-1,-2.2257552E-2,-3.8235295E-1,3.1702545E-1,4.8413134E-1,2.2832516E-1,5.509434E-1,1.0788382E-1,-2.6003212E-1,7.277628E-1,1.12676054E-1,-3.1034482E-1,-9.6551724E-2,-4.6153846E-1,6.5648854E-1],"categories":[],"categories_nodes":[],"categories_segments":[],"categories_sizes":[],"default_left":[1,1,1,1,1,1,1,1,1,1,1,1,1,1,1,1,1,1,0,1,1,1,0,1,1,1,1,1,1,1,1,0,1,1,1,1,1,1,1,1,1,1,1,1,1,1,1,1,1,1,1,1,1,1,1,1,1,1,1,0,0,0,0,0,0,0,0,0,0,0,0,0,0,0,0,0,0,0,0,0,0,0,0,0,0,0,0,0,0,0,0,0,0,0,0,0,0,0,0,0,0,0,0,0,0,0,0,0,0,0,0,0,0],"id":1,"left_children":[1,3,5,7,9,11,13,15,17,19,21,23,25,27,29,31,33,35,-1,37,39,41,-1,43,45,47,49,51,53,55,57,-1,59,61,63,65,67,69,71,73,75,77,79,81,83,85,87,89,91,93,95,97,99,101,103,105,107,109,111,-1,-1,-1,-1,-1,-1,-1,-1,-1,-1,-1,-1,-1,-1,-1,-1,-1,-1,-1,-1,-1,-1,-1,-1,-1,-1,-1,-1,-1,-1,-1,-1,-1,-1,-1,-1,-1,-1,-1,-1,-1,-1,-1,-1,-1,-1,-1,-1,-1,-1,-1,-1,-1,-1],"loss_changes":[1.0124121E3,1.9404813E2,5.93104E2,3.5144768E1,3.9972717E1,2.2554248E2,1.4328174E2,1.2411348E1,3.860878E0,5.639513E0,2.4356598E1,1.4008447E2,1.1183984E2,9.474341E1,1.3804394E1,2.5115051E0,3.01335E0,2.9935455E0,0E0,3.2287766E1,2.6436005E0,4.508713E0,0E0,4.2529785E1,4.581189E1,9.757715E1,4.4298987E0,3.7823975E1,4.297705E1,1.2967182E1,7.4749603E0,0E0,2.6631317E0,1.7171794E0,4.8868775E-1,5.0477753E0,4.2846298E-1,3.4666486E0,1.2721577E0,2.5608711E0,1.9397582E0,4.476349E0,1.9410641E0,2.7559326E1,1.5004089E1,5.870056E0,4.3900146E0,9.227556E0,2.5467407E1,4.2040734E0,1.3993497E0,3.0111816E1,3.060491E0,3.715271E1,1.6713043E1,7.966618E0,7.3921432E0,5.0465517E0,3.1555996E0,0E0,0E0,0E0,0E0,0E0,0E0,0E0,0E0,0E0,0E0,0E0,0E0,0E0,0E0,0E0,0E0,0E0,0E0,0E0,0E0,0E0,0E0,0E0,0E0,0E0,0E0,0E0,0E0,0E0,0E0,0E0,0E0,0E0,0E0,0E0,0E0,0E0,0E0,0E0,0E0,0E0,0E0,0E0,0E0,0E0,0E0,0E0,0E0,0E0,0E0,0E0,0E0,0E0,0E0],"parents":[2147483647,0,0,1,1,2,2,3,3,4,4,5,5,6,6,7,7,8,8,9,9,10,10,11,11,12,12,13,13,14,14,15,15,16,16,17,17,19,19,20,20,21,21,23,23,24,24,25,25,26,26,27,27,28,28,29,29,30,30,32,32,33,33,34,34,35,35,36,36,37,37,38,38,39,39,40,40,41,41,42,42,43,43,44,44,45,45,46,46,47,47,48,48,49,49,50,50,51,51,52,52,53,53,54,54,55,55,56,56,57,57,58,58],"right_children":[2,4,6,8,10,12,14,16,18,20,22,24,26,28,30,32,34,36,-1,38,40,42,-1,44,46,48,50,52,54,56,58,-1,60,62,64,66,68,70,72,74,76,78,80,82,84,86,88,90,92,94,96,98,100,102,104,106,108,110,112,-1,-1,-1,-1,-1,-1,-1,-1,-1,-1,-1,-1,-1,-1,-1,-1,-1,-1,-1,-1,-1,-1,-1,-1,-1,-1,-1,-1,-1,-1,-1,-1,-1,-1,-1,-1,-1,-1,-1,-1,-1,-1,-1,-1,-1,-1,-1,-1,-1,-1,-1,-1,-1,-1],"split_conditions":[2.395E2,1.45E2,2.0168275E6,1.125E2,2.0128605E6,6.07504E5,6.21967E5,3.062875E6,5E-1,2.195E2,5E-1,5E-1,6.223905E5,2.3115E3,6.22671E5,1.000431E6,5E-1,1.295E2,-1.0588236E-1,2.17E2,2.305E2,5E-1,4.9787238E-1,5E-1,2.6445E3,6.083165E5,5E-1,5E-1,4.0084025E6,6.225455E5,5E-1,-1.3043478E-1,8.65E1,5.171086E6,4.4846425E6,1.26E2,4.284085E6,1.081995E6,1.089425E6,5E-1,5E-1,5E-1,2.215E2,1.0081135E6,3.9375E3,1.0407565E6,1.0407555E6,6.08125E5,6.1604E5,6.231985E5,1.0485145E6,6.955E2,3.1379795E6,3.347635E6,5E-1,6.224405E5,3.337794E6,6.22687E5,3.211257E6,2.3959045E-1,1.37092E-1,-2.4277458E-2,-1.7922078E-1,3.176471E-1,3.529412E-2,3.9930317E-1,1.9776538E-1,5.0886077E-1,1.826087E-1,-4.688068E-2,8.159565E-3,3.1291866E-1,7.5E-2,-7.906296E-2,5.454546E-2,-2.7417643E-2,2.4000001E-1,-1.20448284E-1,5.454546E-2,-6.428572E-2,6.885246E-2,1.3981758E-1,1.8666492E-1,3.246094E-1,2.0742857E-1,9.295775E-2,3.681356E-1,-1.3846155E-1,2.3456515E-1,-6.417113E-4,-1.24417186E-1,1.6641013E-1,1.280279E-1,-7.4367872E-3,5.1245555E-2,-1.0588236E-1,1.7260274E-1,1.8784195E-1,1.285802E-1,-6.6772657E-3,-1.1470589E-1,9.510764E-2,1.4523941E-1,6.849755E-2,1.6528302E-1,3.2365147E-2,-7.8009635E-2,2.1832885E-1,3.380282E-2,-9.3103446E-2,-2.8965518E-2,-1.3846155E-1,1.9694658E-1],"split_indices":[1,1,0,1,0,1,1,0,150,1,150,171,1,1,1,0,87,1,0,1,1,45,0,98,1,1,191,166,0,1,54,0,1,0,0,1,0,0,0,172,111,69,1,0,1,0,0,1,1,1,0,1,0,0,87,1,0,1,0,0,0,0,0,0,0,0,0,0,0,0,0,0,0,0,0,0,0,0,0,0,0,0,0,0,0,0,0,0,0,0,0,0,0,0,0,0,0,0,0,0,0,0,0,0,0,0,0,0,0,0,0,0,0],"split_type":[0,0,0,0,0,0,0,0,0,0,0,0,0,0,0,0,0,0,0,0,0,0,0,0,0,0,0,0,0,0,0,0,0,0,0,0,0,0,0,0,0,0,0,0,0,0,0,0,0,0,0,0,0,0,0,0,0,0,0,0,0,0,0,0,0,0,0,0,0,0,0,0,0,0,0,0,0,0,0,0,0,0,0,0,0,0,0,0,0,0,0,0,0,0,0,0,0,0,0,0,0,0,0,0,0,0,0,0,0,0,0,0,0],"sum_hessian":[4.5535125E4,2.741625E3,4.27935E4,2.3025E2,2.511375E3,1.9398375E4,2.3395125E4,1.5225E2,7.8E1,1.048125E3,1.46325E3,1.2211875E4,7.1865E3,2.23665E4,1.028625E3,1.2075E2,3.15E1,7.6875E1,1.125E0,5.7675E2,4.71375E2,1.458375E3,4.875E0,1.1237625E4,9.7425E2,6.525375E3,6.61125E2,6.51675E3,1.584975E4,3.9675E2,6.31875E2,1.875E0,1.18875E2,2.925E1,2.25E0,5.625E1,2.0625E1,5.48625E2,2.8125E1,3.5325E2,1.18125E2,1.417125E3,4.125E1,1.0808625E4,4.29E2,5.23125E2,4.51125E2,2.1675E2,6.308625E3,6.4275E2,1.8375E1,6.406125E3,1.10625E2,9.769125E3,6.080625E3,3.16875E2,7.9875E1,6.1425E2,1.7625E1,3.5625E1,8.325E1,2.0625E1,8.625E0,1.125E0,1.125E0,3.4875E1,2.1375E1,1.875E1,1.875E0,4.1175E2,1.36875E2,2.5125E1,3E0,3.405E2,1.275E1,1.16625E2,1.5E0,1.404375E3,1.275E1,2.7E1,1.425E1,1.300875E3,9.50775E3,2.55E2,1.74E2,7.875E0,5.1525E2,2.25E0,4.48875E2,1.15875E2,1.00875E2,2.938875E3,3.36975E3,5.0325E2,1.395E2,1.125E0,1.725E1,9.0375E2,5.502375E3,7.7625E1,3.3E1,8.175E3,1.594125E3,5.916E3,1.64625E2,2.4E2,7.6875E1,4.5375E1,3.45E1,1.44E2,4.7025E2,2.25E0,1.5375E1],"tree_param":{"num_deleted":"0","num_feature":"196","num_nodes":"113","size_leaf_vector":"0"}},{"base_weights":[-3.6827353E-1,-5.092447E-1,-2.8172472E-1,-6.2707233E-1,-4.87026E-1,-2.932587E-1,1.6935913E-1,-2.0338982E-1,-6.314433E-1,-5.38172E-1,-4.4682837E-1,-2.7215266E-1,-4.2480028E-1,8.8665205E-1,-3.1942788E-1,-6.0465115E-1,2.5316456E-2,-6.3251483E-1,3.448276E-1,-1.9153675E-1,-5.411487E-1,-4.4973725E-1,2.5454545E-1,-2.643586E-1,-4.3378472E-1,-4.4957283E-1,-3.7431666E-1,8.9898545E-1,-4.6153846E-1,-3.835514E-1,-6.676342E-2,-1.12E-1,4.390244E-1,-6.3321495E-1,-0E0,-5.405405E-1,4.5962733E-1,-5.4442674E-1,-2.631579E-1,-4.5211673E-1,8.8737205E-2,4.7398844E-1,-1.0909091E-1,-2.6840982E-1,2.0424195E-2,-3.1363636E-1,-4.6365988E-1,-4.5179743E-1,6.315789E-2,-3.7907186E-1,1.7391305E-1,9.073171E-1,-4E-1,-2.9061663E-1,-5.91687E-1,2.781457E-1,-3.2911393E-1,1.2987013E-1,-4.2857143E-1,8.965517E-1,-4E-1,-5.678392E-1,-6.381412E-1,5.882353E-1,-4.347826E-1,-3.0769232E-1,-6.4E-1,8.363636E-1,-3.0508474E-1,-5.476085E-1,-2.801303E-1,-3.844011E-1,-8.560311E-2,1.3043479E0,-4.5268455E-1,-8.695652E-2,6.4788735E-1,-1.9354838E-1,7.89916E-1,-5.714286E-1,3.2258064E-1,-2.4737485E-1,-3.3265895E-1,-1.2056152E-1,1.4743112E-1,-3.5910225E-1,1.4634146E-1,-4.6561152E-1,4E-1,-4.604392E-1,-3.1763768E-1,8.965517E-1,-2.7027026E-1,-3.5795388E-1,-5.0208044E-1,-8E-2,4E-1,9.1573787E-1,-4E-1,-3.0626702E-1,5.263158E-1,-6.1E-1,1.5384616E-1,-1.12E-1,5.297297E-1,-3.8120106E-1,8E-1],"categories":[],"categories_nodes":[],"categories_segments":[],"categories_sizes":[],"default_left":[1,1,1,1,1,1,1,1,1,1,1,1,1,1,1,0,1,1,0,1,1,1,1,1,1,1,1,1,0,1,1,1,1,1,1,1,1,1,1,1,1,1,1,1,1,1,1,1,1,1,1,1,0,1,1,1,1,0,0,0,0,0,0,0,0,0,0,0,0,0,0,0,0,0,0,0,0,0,0,0,0,0,0,0,0,0,0,0,0,0,0,0,0,0,0,0,0,0,0,0,0,0,0,0,0,0,0],"id":2,"left_children":[1,3,5,7,9,11,13,15,17,19,21,23,25,27,29,-1,31,33,-1,35,37,39,41,43,45,47,49,51,-1,53,55,57,59,61,63,65,67,69,71,73,75,77,79,81,83,85,87,89,91,93,95,97,-1,99,101,103,105,-1,-1,-1,-1,-1,-1,-1,-1,-1,-1,-1,-1,-1,-1,-1,-1,-1,-1,-1,-1,-1,-1,-1,-1,-1,-1,-1,-1,-1,-1,-1,-1,-1,-1,-1,-1,-1,-1,-1,-1,-1,-1,-1,-1,-1,-1,-1,-1,-1,-1],"loss_changes":[5.55438E2,4.503955E1,1.4685376E2,4.9541016E0,2.9729736E1,7.6269775E1,2.4715189E2,2.7225518E0,3.0593262E0,6.510376E0,1.6779053E1,2.9756836E1,4.586914E0,5.164215E0,6.771019E0,0E0,1.1711466E0,1.2015381E0,0E0,1.3003344E1,5.647827E0,1.0463257E1,2.7947447E0,2.610669E1,3.7644043E0,2.932312E0,3.3444824E0,3.4297943E0,0E0,6.2958755E0,7.8847413E0,1.252052E0,2.3259883E0,5.1049805E-1,1.2787724E0,6.599579E-1,6.05307E0,5.1276855E0,1.6031704E0,8.668091E0,3.6543474E0,4.7134533E0,2.9285295E0,3.0064453E1,5.7164106E0,4.6534767E0,1.6530914E0,2.7926025E0,3.5421002E0,3.0599213E0,6.9217384E-1,3.469345E0,0E0,3.1417732E0,1.4898567E0,3.7646594E0,3.208818E0,0E0,0E0,0E0,0E0,0E0,0E0,0E0,0E0,0E0,0E0,0E0,0E0,0E0,0E0,0E0,0E0,0E0,0E0,0E0,0E0,0E0,0E0,0E0,0E0,0E0,0E0,0E0,0E0,0E0,0E0,0E0,0E0,0E0,0E0,0E0,0E0,0E0,0E0,0E0,0E0,0E0,0E0,0E0,0E0,0E0,0E0,0E0,0E0,0E0,0E0],"parents":[2147483647,0,0,1,1,2,2,3,3,4,4,5,5,6,6,7,7,8,8,9,9,10,10,11,11,12,12,13,13,14,14,16,16,17,17,19,19,20,20,21,21,22,22,23,23,24,24,25,25,26,26,27,27,29,29,30,30,31,31,32,32,33,33,34,34,35,35,36,36,37,37,38,38,39,39,40,40,41,41,42,42,43,43,44,44,45,45,46,46,47,47,48,48,49,49,50,50,51,51,53,53,54,54,55,55,56,56],"right_children":[2,4,6,8,10,12,14,16,18,20,22,24,26,28,30,-1,32,34,-1,36,38,40,42,44,46,48,50,52,-1,54,56,58,60,62,64,66,68,70,72,74,76,78,80,82,84,86,88,90,92,94,96,98,-1,100,102,104,106,-1,-1,-1,-1,-1,-1,-1,-1,-1,-1,-1,-1,-1,-1,-1,-1,-1,-1,-1,-1,-1,-1,-1,-1,-1,-1,-1,-1,-1,-1,-1,-1,-1,-1,-1,-1,-1,-1,-1,-1,-1,-1,-1,-1,-1,-1,-1,-1,-1,-1],"split_conditions":[3.3975E3,2.47E2,6.230805E5,5.4E1,1.089898E6,6.20277E5,6.23091E5,1.05E1,5E-1,3.09E2,5E-1,5.0003025E6,3.2246175E6,5E-1,6.23879E5,-1.8139535E-1,2.129582E6,5E-1,1.0344828E-1,2.98E2,5E-1,5E-1,2.1135555E6,6.202535E5,2.5021E4,5E-1,5E-1,5E-1,-1.3846155E-1,6.23561E5,6.239735E5,1.054846E6,3.427081E6,1.405E2,2.007296E6,2.56E2,3.02E2,5E-1,1.827E3,1.0899065E6,2.1715E3,2.004819E6,2.129147E6,6.16235E5,1.0787075E6,2.3538E4,5.8628825E6,6.2275E5,6.21067E5,6.226755E5,3.4261335E6,5E-1,-1.20000005E-1,5E-1,5E-1,6.239465E5,5E-1,3.896104E-2,-1.2857144E-1,2.6896554E-1,-1.20000005E-1,-1.7035177E-1,-1.9144237E-1,1.7647061E-1,-1.3043478E-1,-9.23077E-2,-1.92E-1,2.509091E-1,-9.152542E-2,-1.6428256E-1,-8.403909E-2,-1.1532034E-1,-2.5680935E-2,3.9130437E-1,-1.3580537E-1,-2.6086958E-2,1.9436622E-1,-5.8064517E-2,2.369748E-1,-1.7142859E-1,9.67742E-2,-7.4212454E-2,-9.979769E-2,-3.6168456E-2,4.4229336E-2,-1.0773068E-1,4.3902438E-2,-1.3968346E-1,1.20000005E-1,-1.3813177E-1,-9.529131E-2,2.6896554E-1,-8.108108E-2,-1.07386164E-1,-1.5062414E-1,-2.4E-2,1.20000005E-1,2.7472138E-1,-1.20000005E-1,-9.188011E-2,1.5789475E-1,-1.8300001E-1,4.615385E-2,-3.3600003E-2,1.5891892E-1,-1.14360325E-1,2.4000001E-1],"split_indices":[1,1,1,1,0,1,1,1,194,1,112,0,0,89,1,0,0,112,0,1,31,128,0,1,1,67,42,6,0,1,1,0,0,1,0,1,1,53,1,0,1,0,0,1,0,1,0,1,1,1,0,178,0,45,171,1,122,0,0,0,0,0,0,0,0,0,0,0,0,0,0,0,0,0,0,0,0,0,0,0,0,0,0,0,0,0,0,0,0,0,0,0,0,0,0,0,0,0,0,0,0,0,0,0,0,0,0],"split_type":[0,0,0,0,0,0,0,0,0,0,0,0,0,0,0,0,0,0,0,0,0,0,0,0,0,0,0,0,0,0,0,0,0,0,0,0,0,0,0,0,0,0,0,0,0,0,0,0,0,0,0,0,0,0,0,0,0,0,0,0,0,0,0,0,0,0,0,0,0,0,0,0,0,0,0,0,0,0,0,0,0,0,0,0,0,0,0,0,0,0,0,0,0,0,0,0,0,0,0,0,0,0,0,0,0,0,0],"sum_hessian":[4.5535125E4,1.731975E4,2.8215375E4,2.7435E3,1.457625E4,2.751225E4,7.03125E2,2.85E1,2.715E3,6.409125E3,8.167125E3,2.3710875E4,3.801375E3,2.84625E2,4.185E2,9.75E0,1.875E1,2.712375E3,2.625E0,5.5125E1,6.354E3,8.13375E3,3.3375E1,2.2622625E4,1.08825E3,2.54475E3,1.256625E3,2.82375E2,2.25E0,3.33375E2,8.5125E1,1.4625E1,4.125E0,2.709375E3,3E0,3.6E1,1.9125E1,6.279E3,7.5E1,8.098125E3,3.5625E1,2.0625E1,1.275E1,2.2305375E4,3.1725E2,2.19E2,8.6925E2,2.533875E3,1.0875E1,1.246125E3,1.05E1,2.80875E2,1.5E0,2.32125E2,1.0125E2,3.675E1,4.8375E1,8.625E0,6E0,2.625E0,1.5E0,1.98E2,2.511375E3,1.125E0,1.875E0,1.2E1,2.4E1,1.275E1,6.375E0,6.20325E3,7.575E1,4.3875E1,3.1125E1,1.875E0,8.09625E3,2.775E1,7.875E0,6.75E0,1.3875E1,6E0,6.75E0,1.68075E4,5.497875E3,1.50375E2,1.66875E2,1.995E2,1.95E1,8.6775E2,1.5E0,2.37825E3,1.55625E2,2.625E0,8.25E0,1.066875E3,1.7925E2,5.25E0,5.25E0,2.79375E2,1.5E0,2.28375E2,3.75E0,9.9E1,2.25E0,1.4625E1,2.2125E1,4.6875E1,1.5E0],"tree_param":{"num_deleted":"0","num_feature":"196","num_nodes":"107","size_leaf_vector":"0"}},{"base_weights":[-5.278611E-1,-6.3138634E-1,-4.6651486E-1,-6.3212556E-1,-3.3142856E-1,-4.6928564E-1,4.065934E-1,-6.327087E-1,-3.3093524E-1,-1.0778443E-1,-5.13089E-1,-5.457037E-1,-4.4384715E-1,-4.6387833E-1,8.8372093E-1,-6.3337743E-1,-4.0758294E-1,1.0588236E0,-4.0892193E-1,-5.671642E-1,1.4146341E0,-5.895954E-1,1.5384616E-1,-5.539571E-1,-3.1861043E-1,-4.058925E-1,-5.0336295E-1,-6.293706E-1,-2.5E-1,1.3544669E0,-3.880597E-1,-6.339021E-1,-3.783784E-1,-5.3488374E-1,1.3953489E-1,-4.46281E-1,-5.7142857E-2,5.882353E-1,-3.529412E-1,-5.379015E-1,-5.7915276E-1,-2.0858896E-1,-5.146036E-1,-4.1849345E-1,1.09556176E-1,-5.1607376E-1,-3.3677554E-1,2.4E-1,-5.116279E-1,-9.2307694E-2,1.6413794E0,3.773585E-2,-6.0674155E-1,-6.500422E-1,-6.263244E-1,6.2068963E-1,-4.7272727E-1,-0E0,-5.75E-1,5.084746E-1,-5.1428574E-1,-2.1686748E-1,-5.3892213E-1,5.882353E-1,-4.6153846E-1,-5.6489307E-1,-4.677591E-1,-6.296515E-1,-5.6933653E-1,-2.3463687E-1,3.7288135E-1,-5.476923E-1,-1.8181819E-1,-4.2205375E-1,3.340206E-1,1.493671E0,1.6163334E-2,-5.183936E-1,1.3215859E-1,2.1428572E-1,-3.6343563E-1,-3.529412E-1,4.390244E-1,-5.915493E-1,-8.695652E-2,8E-2,-4.347826E-1,1.2671756E0,1.8562875E0,-2.857143E-1,4.6153846E-1],"categories":[],"categories_nodes":[],"categories_segments":[],"categories_sizes":[],"default_left":[1,1,1,1,1,1,1,1,1,1,1,1,1,1,1,1,1,0,1,0,0,0,1,1,1,1,1,0,1,1,1,1,1,1,1,1,1,0,0,1,1,1,1,1,1,1,1,1,1,1,1,1,0,0,0,0,0,0,0,0,0,0,0,0,0,0,0,0,0,0,0,0,0,0,0,0,0,0,0,0,0,0,0,0,0,0,0,0,0,0,0],"id":3,"left_children":[1,3,5,7,9,11,13,15,17,19,21,23,25,27,29,31,33,-1,35,-1,-1,-1,37,39,41,43,45,-1,47,49,51,53,55,57,59,61,63,-1,-1,65,67,69,71,73,75,77,79,81,83,85,87,89,-1,-1,-1,-1,-1,-1,-1,-1,-1,-1,-1,-1,-1,-1,-1,-1,-1,-1,-1,-1,-1,-1,-1,-1,-1,-1,-1,-1,-1,-1,-1,-1,-1,-1,-1,-1,-1,-1,-1],"loss_changes":[2.889004E2,3.546875E0,6.937256E1,2.7583008E0,1.7221413E0,5.517334E1,3.820461E1,2.2807617E0,4.199274E0,1.5401643E1,1.3089237E0,1.3159424E1,4.811963E1,1.0062752E0,3.5922894E1,2.0097656E0,3.7485943E0,0E0,4.1640282E-1,0E0,0E0,0E0,9.230769E-1,2.465332E0,5.3239536E0,8.492114E1,1.7456299E1,0E0,2.1739535E0,1.8156372E1,1.5825515E0,1.6445312E0,3.7810726E0,9.2267513E-1,2.85462E0,5.2603245E-1,1.4133161E0,0E0,0E0,7.699951E0,9.594116E-1,2.5563045E0,8.9007187E-1,3.4316162E1,4.0387764E1,1.1698242E1,8.791679E0,8.925108E-1,3.1341958E-1,5.142475E-1,5.6295776E-1,1.0400167E0,0E0,0E0,0E0,0E0,0E0,0E0,0E0,0E0,0E0,0E0,0E0,0E0,0E0,0E0,0E0,0E0,0E0,0E0,0E0,0E0,0E0,0E0,0E0,0E0,0E0,0E0,0E0,0E0,0E0,0E0,0E0,0E0,0E0,0E0,0E0,0E0,0E0,0E0,0E0],"parents":[2147483647,0,0,1,1,2,2,3,3,4,4,5,5,6,6,7,7,8,8,9,9,10,10,11,11,12,12,13,13,14,14,15,15,16,16,18,18,22,22,23,23,24,24,25,25,26,26,28,28,29,29,30,30,31,31,32,32,33,33,34,34,35,35,36,36,39,39,40,40,41,41,42,42,43,43,44,44,45,45,46,46,47,47,48,48,49,49,50,50,51,51],"right_children":[2,4,6,8,10,12,14,16,18,20,22,24,26,28,30,32,34,-1,36,-1,-1,-1,38,40,42,44,46,-1,48,50,52,54,56,58,60,62,64,-1,-1,66,68,70,72,74,76,78,80,82,84,86,88,90,-1,-1,-1,-1,-1,-1,-1,-1,-1,-1,-1,-1,-1,-1,-1,-1,-1,-1,-1,-1,-1,-1,-1,-1,-1,-1,-1,-1,-1,-1,-1,-1,-1,-1,-1,-1,-1,-1,-1],"split_conditions":[2.685E3,5E-1,5E-1,5E-1,4.442654E6,1.050116E6,3.3212685E6,5E-1,1.59E2,4.4363095E6,4.6236725E6,6.23085E5,6.162435E5,3.2294675E6,3.3314395E6,5E-1,3.4192875E6,3.176471E-1,3.426168E6,-1.7014927E-1,4.2439026E-1,-1.7687862E-1,4.623779E6,6.129695E5,6.23091E5,6.15945E5,6.22807E5,-1.888112E-1,3.2313145E6,3.1184E4,3.334191E6,1.057377E6,2.001393E6,1.95E2,3.4288595E6,3.1893655E6,3.428929E6,1.7647061E-1,-1.0588236E-1,6.074415E5,6.15176E5,5E-1,5E-1,5E-1,6.159535E5,5E-1,6.228105E5,3.13664E5,6.189825E5,3.3314325E6,3.3312985E6,3.3314415E6,-1.8202247E-1,-1.9501266E-1,-1.8789734E-1,1.8620689E-1,-1.4181818E-1,-0E0,-1.725E-1,1.5254238E-1,-1.5428573E-1,-6.506024E-2,-1.6167665E-1,1.7647061E-1,-1.3846155E-1,-1.6946793E-1,-1.4032774E-1,-1.8889545E-1,-1.7080097E-1,-7.039107E-2,1.1186441E-1,-1.643077E-1,-5.454546E-2,-1.2661614E-1,1.0020619E-1,4.481013E-1,4.8490004E-3,-1.5551808E-1,3.964758E-2,6.428572E-2,-1.09030694E-1,-1.0588236E-1,1.3170733E-1,-1.7746478E-1,-2.6086958E-2,2.4E-2,-1.3043478E-1,3.8015267E-1,5.5688626E-1,-8.5714296E-2,1.3846155E-1],"split_indices":[1,82,29,150,0,0,0,25,1,0,0,1,1,0,0,112,0,0,0,0,0,0,0,1,1,1,1,0,0,1,0,0,0,1,0,0,0,0,0,1,1,97,172,35,1,150,1,1,1,0,0,0,0,0,0,0,0,0,0,0,0,0,0,0,0,0,0,0,0,0,0,0,0,0,0,0,0,0,0,0,0,0,0,0,0,0,0,0,0,0,0],"split_type":[0,0,0,0,0,0,0,0,0,0,0,0,0,0,0,0,0,0,0,0,0,0,0,0,0,0,0,0,0,0,0,0,0,0,0,0,0,0,0,0,0,0,0,0,0,0,0,0,0,0,0,0,0,0,0,0,0,0,0,0,0,0,0,0,0,0,0,0,0,0,0,0,0,0,0,0,0,0,0,0,0,0,0,0,0,0,0,0,0,0,0],"sum_hessian":[4.5535125E4,1.69395E4,2.8595625E4,1.689675E4,4.275E1,2.8505625E4,9E1,1.6863E4,3.375E1,1.9875E1,2.2875E1,7.114125E3,2.13915E4,3.1875E1,5.8125E1,1.681125E4,5.175E1,1.125E0,3.2625E1,1.575E1,4.125E0,2.0625E1,2.25E0,6.86325E3,2.50875E2,1.30665E4,8.325E3,1.6875E1,1.5E1,4.2375E1,1.575E1,1.677525E4,3.6E1,4.2E1,9.75E0,2.925E1,3.375E0,1.125E0,1.125E0,4.205625E3,2.657625E3,1.62E2,8.8875E1,1.2754875E4,3.11625E2,7.732875E3,5.92125E2,5.25E0,9.75E0,7.125E0,3.525E1,5.625E0,1.0125E1,5.3325E3,1.144275E4,2.625E0,3.3375E1,3E0,3.9E1,6.375E0,3.375E0,9.375E0,1.9875E1,1.125E0,2.25E0,3.031875E3,1.17375E3,4.2225E2,2.235375E3,1.55625E2,6.375E0,8.025E1,8.625E0,1.269525E4,5.9625E1,1.875E1,2.92875E2,7.7055E3,2.7375E1,2.7E1,5.65125E2,1.125E0,4.125E0,7.875E0,1.875E0,5.25E0,1.875E0,1.5375E1,1.9875E1,3.375E0,2.25E0],"tree_param":{"num_deleted":"0","num_feature":"196","num_nodes":"91","size_leaf_vector":"0"}},{"base_weights":[3.639459E-1,9.178305E-1,3.23051E-1,3.3033037E-1,9.6348923E-1,2.863257E-1,4.5326236E-1,5.4379857E-1,-1.6768068E-1,8.814245E-1,1.0202821E0,3.785626E-1,2.2849874E-1,4.6127477E-1,-3.3978504E-1,1.6646151E-1,6.2189627E-1,-1.6006684E-2,-5.9431976E-1,8.8407737E-1,-2.86197E-1,1.0239897E0,-5.0560546E-1,3.9656508E-1,-1.0590755E-2,1.3462865E-1,3.674419E-1,4.2704785E-1,5.9804064E-1,5.2256453E-1,-3.771568E-1,4.652931E-1,-5.846331E-1,1.2203772E0,5.545517E-1,-2.639397E-1,3.2646602E-1,8.8632214E-1,-4.3512198E-1,1.0257747E0,-9.683879E-2,3.7711963E-1,5.6612587E-1,-5.836868E-2,4.926678E-1,1.5803514E-1,-3.9071795E-1,3.5595104E-1,8.8302314E-1,4.7133496E-1,1.6637404E-1,5.7435775E-1,7.9911846E-1,-4.3087524E-1,1.1716812E0,-4.2738435E-1,2.3314983E-1,5.3027177E-1,-3.8035583E-1,6.359298E-2,6.0494506E-1,-3.4324038E-1,2.331118E-1,3.7278143E-1,-3.4131014E-1,9.1384727E-1,7.9335463E-1,1.0268381E0,-3.6336836E-1,3.3375177E-1,-4.8765722E-1,3.6348513E-1,6.702423E-1,6.016433E-1,-9.015847E-2,7.53604E-1,-7.3969856E-2,3.760337E-1,9.405342E-1,1.1658764E-1,3.5474554E-1,-2.9418537E-1,-6.7779815E-1,3.4771112E-1,1.1134222E0,9.219108E-1,5.286359E-2,4.8034576E-1,-1.599373E-1,4.60096E-2,4.5068154E-1,5.583966E-1,8.363467E-1,1.3238223E0,6.937679E-1,-3.8415325E-1,-6.565204E-1,4.7922564E-1,-9.079111E-2],"categories":[],"categories_nodes":[],"categories_segments":[],"categories_sizes":[],"default_left":[1,1,1,1,1,1,1,1,1,1,1,1,1,1,1,1,1,1,0,1,0,1,0,1,1,1,1,1,1,1,1,1,0,0,1,1,1,1,0,1,1,1,1,1,1,1,1,1,1,1,1,1,1,0,0,1,1,0,0,0,0,0,0,0,0,0,0,0,0,0,0,0,0,0,0,0,0,0,0,0,0,0,0,0,0,0,0,0,0,0,0,0,0,0,0,0,0,0,0],"id":4,"left_children":[1,3,5,7,9,11,13,15,17,19,21,23,25,27,29,31,33,35,-1,37,-1,39,-1,41,43,45,47,49,51,53,55,57,-1,-1,59,61,63,65,-1,67,69,71,73,75,77,79,81,83,85,87,89,91,93,-1,-1,95,97,-1,-1,-1,-1,-1,-1,-1,-1,-1,-1,-1,-1,-1,-1,-1,-1,-1,-1,-1,-1,-1,-1,-1,-1,-1,-1,-1,-1,-1,-1,-1,-1,-1,-1,-1,-1,-1,-1,-1,-1,-1,-1],"loss_changes":[1.1232544E3,9.1151855E1,2.2077051E2,2.6394514E1,1.3844971E1,1.921106E2,6.471997E1,5.007103E0,4.843706E0,4.2836304E0,1.1059082E1,9.727258E1,2.888551E2,4.683374E1,3.4909286E0,7.2533293E0,5.099621E0,4.871461E0,0E0,4.231018E0,0E0,3.8186035E0,0E0,4.3541016E1,1.481295E1,1.6263666E2,5.2594727E1,9.284778E1,9.11792E0,3.3916903E0,3.120347E0,1.4549675E0,0E0,0E0,3.194088E0,1.3903608E0,8.730223E-1,2.5930786E0,0E0,3.1153564E0,8.139569E-1,4.7347534E1,3.1831757E1,7.180658E0,2.4366999E0,1.0316113E2,1.5436737E1,5.414868E1,6.214905E0,3.9211426E1,4.003429E1,7.071289E0,1.0653961E1,0E0,0E0,6.5319633E-1,6.92396E-1,0E0,0E0,0E0,0E0,0E0,0E0,0E0,0E0,0E0,0E0,0E0,0E0,0E0,0E0,0E0,0E0,0E0,0E0,0E0,0E0,0E0,0E0,0E0,0E0,0E0,0E0,0E0,0E0,0E0,0E0,0E0,0E0,0E0,0E0,0E0,0E0,0E0,0E0,0E0,0E0,0E0,0E0],"parents":[2147483647,0,0,1,1,2,2,3,3,4,4,5,5,6,6,7,7,8,8,9,9,10,10,11,11,12,12,13,13,14,14,15,15,16,16,17,17,19,19,21,21,23,23,24,24,25,25,26,26,27,27,28,28,29,29,30,30,31,31,34,34,35,35,36,36,37,37,39,39,40,40,41,41,42,42,43,43,44,44,45,45,46,46,47,47,48,48,49,49,50,50,51,51,52,52,55,55,56,56],"right_children":[2,4,6,8,10,12,14,16,18,20,22,24,26,28,30,32,34,36,-1,38,-1,40,-1,42,44,46,48,50,52,54,56,58,-1,-1,60,62,64,66,-1,68,70,72,74,76,78,80,82,84,86,88,90,92,94,-1,-1,96,98,-1,-1,-1,-1,-1,-1,-1,-1,-1,-1,-1,-1,-1,-1,-1,-1,-1,-1,-1,-1,-1,-1,-1,-1,-1,-1,-1,-1,-1,-1,-1,-1,-1,-1,-1,-1,-1,-1,-1,-1,-1,-1],"split_conditions":[2.47E2,1.45E2,4.0081565E6,1.125E2,2.0128605E6,1.3479E4,5E-1,5.4E1,1.295E2,5E-1,5E-1,5E-1,6.16235E5,5.0162715E6,4.0086055E6,2.4E1,6.05E1,1.26E2,-1.7829594E-1,5E-1,-8.5859105E-2,5E-1,-1.5168165E-1,5E-1,5.3115E3,6.15885E5,5E-1,4.596098E6,5.1748325E6,4.0085995E6,6.21571E5,5E-1,-1.7538995E-1,3.661132E-1,8.55E1,5E-1,4.6235785E6,1.081995E6,-1.305366E-1,5E-1,5.126275E6,5E-1,1.0887885E6,1.0407565E6,1.0480735E6,6.133905E5,6.162325E5,5E-1,6.227515E5,5E-1,4.6240275E6,5E-1,5.1748915E6,-1.2926258E-1,3.5150436E-1,6.18924E5,6.22346E5,1.5908153E-1,-1.1410675E-1,1.9077893E-2,1.8148352E-1,-1.0297212E-1,6.993354E-2,1.1183443E-1,-1.02393046E-1,2.741542E-1,2.380064E-1,3.0805144E-1,-1.0901051E-1,1.0012554E-1,-1.4629717E-1,1.0904554E-1,2.0107271E-1,1.80493E-1,-2.7047543E-2,2.260812E-1,-2.2190958E-2,1.1281011E-1,2.8216025E-1,3.4976292E-2,1.0642367E-1,-8.8255614E-2,-2.0333946E-1,1.0431334E-1,3.3402666E-1,2.7657327E-1,1.5859079E-2,1.4410374E-1,-4.7981195E-2,1.380288E-2,1.3520446E-1,1.6751897E-1,2.5090402E-1,3.971467E-1,2.0813037E-1,-1.15245976E-1,-1.9695614E-1,1.437677E-1,-2.7237335E-2],"split_indices":[1,1,0,1,0,1,128,1,1,194,150,171,1,0,0,1,1,1,0,35,0,4,0,109,1,1,166,0,0,0,1,181,0,0,1,152,0,0,0,83,0,169,0,0,0,1,1,18,1,82,0,105,0,0,0,1,1,0,0,0,0,0,0,0,0,0,0,0,0,0,0,0,0,0,0,0,0,0,0,0,0,0,0,0,0,0,0,0,0,0,0,0,0,0,0,0,0,0,0],"split_type":[0,0,0,0,0,0,0,0,0,0,0,0,0,0,0,0,0,0,0,0,0,0,0,0,0,0,0,0,0,0,0,0,0,0,0,0,0,0,0,0,0,0,0,0,0,0,0,0,0,0,0,0,0,0,0,0,0,0,0,0,0,0,0,0,0,0,0,0,0,0,0,0,0,0,0,0,0,0,0,0,0,0,0,0,0,0,0,0,0,0,0,0,0,0,0,0,0,0,0],"sum_hessian":[4.960157E4,3.4089521E3,4.6192617E4,2.4642218E2,3.16253E3,3.603295E4,1.0159669E4,1.7242271E2,7.399946E1,1.3002343E3,1.8622958E3,1.3883125E4,2.2149824E4,1.0058463E4,1.0120576E2,3.0103935E1,1.4231879E2,5.535705E1,1.8642408E1,1.297529E3,2.7051978E0,1.8581099E3,4.1858945E0,1.3269261E4,6.138642E2,1.3220209E4,8.929614E3,8.048398E3,2.0100647E3,3.6645195E0,9.754124E1,2.1807919E1,8.296017E0,1.2663018E1,1.2965576E2,3.224361E1,2.3113441E1,1.2956525E3,1.8765702E0,1.8552401E3,2.8696814E0,1.1906978E4,1.3622833E3,5.614461E2,5.2418068E1,1.2656983E4,5.632249E2,8.736592E3,1.9302325E2,6.8789004E3,1.1694977E3,1.8017155E3,2.0834933E2,1.6204996E0,2.04402E0,9.0401054E1,7.1401796E0,2.0598124E1,1.2097949E0,1.2279945E1,1.17375824E2,2.807406E1,4.1695495E0,2.2027426E1,1.0860139E0,9.928629E2,3.0278958E2,1.8540815E3,1.1585689E0,1.4348407E0,1.4348407E0,1.1379886E4,5.270918E2,1.292422E3,6.986135E1,9.692447E0,5.5175366E2,4.3047245E1,9.370823E0,1.0455557E4,2.2014268E3,4.2300983E2,1.4021507E2,8.644019E3,9.257255E1,1.8428038E2,8.742877E0,6.7823286E3,9.657177E1,8.224619E2,3.4703574E2,1.7012045E3,1.00510895E2,3.2903908E1,1.7544543E2,7.8303986E1,1.2097074E1,3.7853482E0,3.3548317E0],"tree_param":{"num_deleted":"0","num_feature":"196","num_nodes":"99","size_leaf_vector":"0"}},{"base_weights":[2.987477E-1,-1.418228E-1,3.2314378E-1,4.898098E-1,-2.1235156E-1,4.0667555E-1,2.4842922E-1,3.1018764E-1,7.915035E-1,-9.063436E-2,-3.209517E-1,4.6174884E-1,3.108322E-1,2.6050374E-1,-3.225522E-2,4.1057828E-1,-1.2566634E-1,8.076252E-1,-3.3280703E-1,-3.4518845E-2,-1.5957688E-1,-3.291282E-1,1.0992482E0,4.4327447E-1,6.6436607E-1,3.3768415E-1,2.2584694E-2,3.3334216E-1,2.2978306E-1,8.579381E-2,-1.10570125E-1,-4.158985E-1,4.249669E-1,-2.1529143E-1,6.598293E-1,8.7860185E-1,5.0790167E-1,-7.58312E-2,6.541146E-1,-1.9792442E-1,-4.9151804E-2,-3.417801E-1,-1.5092119E-2,4.304745E-1,5.717807E-1,7.7594054E-1,5.242253E-1,-1.3747624E-1,3.5628042E-1,-5.2523214E-1,3.1812854E-2,3.255503E-1,7.8541696E-1,2.2454993E-1,5.099881E-1,9.448849E-3,3.651862E-1,-2.8191477E-1,-5.956591E-2,4.3596897E-1,-3.9671782E-1,-7.4303105E-2,-5.5069494E-1,9.357471E-1,7.686474E-2,9.045833E-1,4.7671635E-2,-8.6434325E-3,6.3450843E-1,-4.0570643E-2,-2.595438E-1,6.9940776E-1,1.717149E-1,-2.126707E-1,1.9505535E-1,-6.456427E-2,7.0199466E-1,-3.5343948E-1,-3.3700631E-3,-1.8654636E-1,1.4962426E0,4.2365465E-1,7.1927375E-1,4.352239E-1,6.7381746E-1,8.306722E-1,6.153681E-1,3.9363274E-1,5.655038E-1,-3.459175E-1,-5.0253216E-2,3.4309304E-1,5.4251224E-1,-6.071306E-1,1.0938235E-1,1.970055E-2,4.1363424E-1,3.3235854E-1,-1.14993945E-1,8.126658E-1,-2.4266645E-1,2.184745E-1,4.6091926E-1,4.1878477E-1,6.2874377E-1,8.702161E-2,-2.3897481E-1,5.55807E-1,8.757331E-2,-5.133706E-1,-9.5026046E-2,6.5187546E-3,-2.7818066E-1],"categories":[],"categories_nodes":[],"categories_segments":[],"categories_sizes":[],"default_left":[1,1,1,1,1,1,1,1,1,1,1,1,1,1,1,1,1,1,0,1,1,1,0,1,1,1,1,1,1,1,1,0,1,1,1,1,1,1,1,1,1,1,1,1,1,1,1,1,1,1,1,1,1,1,1,1,1,1,1,0,0,0,0,0,0,0,0,0,0,0,0,0,0,0,0,0,0,0,0,0,0,0,0,0,0,0,0,0,0,0,0,0,0,0,0,0,0,0,0,0,0,0,0,0,0,0,0,0,0,0,0,0,0],"id":5,"left_children":[1,3,5,7,9,11,13,15,17,19,21,23,25,27,29,31,33,35,-1,37,39,41,-1,43,45,47,49,51,53,55,57,-1,59,61,63,65,67,69,71,73,75,77,79,81,83,85,87,89,91,93,95,97,99,101,103,105,107,109,111,-1,-1,-1,-1,-1,-1,-1,-1,-1,-1,-1,-1,-1,-1,-1,-1,-1,-1,-1,-1,-1,-1,-1,-1,-1,-1,-1,-1,-1,-1,-1,-1,-1,-1,-1,-1,-1,-1,-1,-1,-1,-1,-1,-1,-1,-1,-1,-1,-1,-1,-1,-1,-1,-1],"loss_changes":[5.240713E2,1.1409328E2,2.8821582E2,1.3698875E1,3.040599E1,1.1497803E2,8.266272E1,7.18093E0,1.9977074E0,4.2000456E0,1.4487015E1,5.154492E1,6.1618652E1,5.224475E1,9.316876E0,1.7543926E0,2.3433847E0,1.5604324E0,0E0,1.7134819E1,2.0546246E0,4.803192E0,0E0,2.0635254E1,1.7656097E1,6.4407104E1,3.4522E0,2.41698E1,2.4005737E1,8.572996E0,5.276328E0,0E0,1.3562374E0,1.3219416E0,4.8274946E-1,1.5738182E0,1.3416195E0,3.6653757E0,6.248169E-1,2.1364574E0,1.515481E0,4.5887604E0,1.2695044E1,2.2441406E1,1.5687103E1,5.1228333E0,2.5543213E0,4.983029E0,1.7028381E1,6.5450287E-1,3.087008E0,2.0488708E1,3.46875E0,2.3090515E1,2.9944916E0,6.1261272E0,4.5163145E0,5.949394E0,6.763096E0,0E0,0E0,0E0,0E0,0E0,0E0,0E0,0E0,0E0,0E0,0E0,0E0,0E0,0E0,0E0,0E0,0E0,0E0,0E0,0E0,0E0,0E0,0E0,0E0,0E0,0E0,0E0,0E0,0E0,0E0,0E0,0E0,0E0,0E0,0E0,0E0,0E0,0E0,0E0,0E0,0E0,0E0,0E0,0E0,0E0,0E0,0E0,0E0,0E0,0E0,0E0,0E0,0E0,0E0],"parents":[2147483647,0,0,1,1,2,2,3,3,4,4,5,5,6,6,7,7,8,8,9,9,10,10,11,11,12,12,13,13,14,14,15,15,16,16,17,17,19,19,20,20,21,21,23,23,24,24,25,25,26,26,27,27,28,28,29,29,30,30,32,32,33,33,34,34,35,35,36,36,37,37,38,38,39,39,40,40,41,41,42,42,43,43,44,44,45,45,46,46,47,47,48,48,49,49,50,50,51,51,52,52,53,53,54,54,55,55,56,56,57,57,58,58],"right_children":[2,4,6,8,10,12,14,16,18,20,22,24,26,28,30,32,34,36,-1,38,40,42,-1,44,46,48,50,52,54,56,58,-1,60,62,64,66,68,70,72,74,76,78,80,82,84,86,88,90,92,94,96,98,100,102,104,106,108,110,112,-1,-1,-1,-1,-1,-1,-1,-1,-1,-1,-1,-1,-1,-1,-1,-1,-1,-1,-1,-1,-1,-1,-1,-1,-1,-1,-1,-1,-1,-1,-1,-1,-1,-1,-1,-1,-1,-1,-1,-1,-1,-1,-1,-1,-1,-1,-1,-1,-1,-1,-1,-1,-1,-1],"split_conditions":[2.395E2,1.45E2,2.0287175E6,1.125E2,2.0946755E6,6.07504E5,6.21967E5,3.062875E6,5E-1,2.195E2,5E-1,5E-1,6.223905E5,2.3115E3,6.22671E5,1.000431E6,5E-1,3.4265115E6,-9.9842116E-2,2.175E2,2.305E2,5E-1,3.2977447E-1,5E-1,2.842E3,6.086305E5,6.22434E5,2.2875E3,5E-1,6.225455E5,6.22687E5,-1.2476955E-1,5E-1,5.171086E6,1.03E2,5E-1,4.004033E6,2.115E2,1.089425E6,5E-1,5E-1,5E-1,4.618021E6,6.074415E5,1.0154825E6,1.047473E6,1.52385E4,6.07877E5,5E-1,5E-1,5E-1,5E-1,5E-1,5E-1,6.16684E5,6.224405E5,3.337794E6,4.0474165E6,6.23558E5,1.307907E-1,-1.1901535E-1,-2.2290932E-2,-1.6520849E-1,2.8072414E-1,2.3059424E-2,2.71375E-1,1.4301491E-2,-2.5930298E-3,1.9035254E-1,-1.2171193E-2,-7.786314E-2,2.0982234E-1,5.1514473E-2,-6.3801214E-2,5.8516607E-2,-1.9369282E-2,2.1059841E-1,-1.0603185E-1,-1.011019E-3,-5.5963907E-2,4.488728E-1,1.270964E-1,2.1578214E-1,1.3056718E-1,2.0214525E-1,2.4920167E-1,1.8461044E-1,1.18089825E-1,1.6965114E-1,-1.03775255E-1,-1.5075966E-2,1.02927916E-1,1.6275367E-1,-1.8213919E-1,3.2814708E-2,5.910165E-3,1.2409028E-1,9.9707566E-2,-3.4498185E-2,2.4379976E-1,-7.2799936E-2,6.5542355E-2,1.3827579E-1,1.2563543E-1,1.8862315E-1,2.6106484E-2,-7.1692444E-2,1.667421E-1,2.6271995E-2,-1.5401118E-1,-2.8507816E-2,1.9556265E-3,-8.34542E-2],"split_indices":[1,1,0,1,0,1,1,0,150,1,150,171,1,1,1,0,87,0,0,1,1,87,0,86,1,1,1,1,19,1,1,0,32,0,1,181,0,1,0,172,111,45,0,1,0,0,1,1,171,86,191,18,125,45,1,1,0,0,1,0,0,0,0,0,0,0,0,0,0,0,0,0,0,0,0,0,0,0,0,0,0,0,0,0,0,0,0,0,0,0,0,0,0,0,0,0,0,0,0,0,0,0,0,0,0,0,0,0,0,0,0,0,0],"split_type":[0,0,0,0,0,0,0,0,0,0,0,0,0,0,0,0,0,0,0,0,0,0,0,0,0,0,0,0,0,0,0,0,0,0,0,0,0,0,0,0,0,0,0,0,0,0,0,0,0,0,0,0,0,0,0,0,0,0,0,0,0,0,0,0,0,0,0,0,0,0,0,0,0,0,0,0,0,0,0,0,0,0,0,0,0,0,0,0,0,0,0,0,0,0,0,0,0,0,0,0,0,0,0,0,0,0,0,0,0,0,0,0,0],"sum_hessian":[4.8753746E4,2.557781E3,4.6195965E4,2.563198E2,2.3014612E3,2.18089E4,2.4387064E4,1.6193512E2,9.438468E1,1.086059E3,1.2154022E3,1.3847858E4,7.961042E3,2.3381314E4,1.0057487E3,1.3166629E2,3.026883E1,9.33281E1,1.0565789E0,5.9955444E2,4.8650452E2,1.2092087E3,6.193532E0,1.2693655E4,1.1542031E3,7.282466E3,6.785763E2,6.93312E3,1.6448195E4,4.0107996E2,6.0466876E2,1.7755368E0,1.2989076E2,2.7820433E1,2.448396E0,7.3897316E1,1.943079E1,5.664613E2,3.3093147E1,3.6051523E2,1.2598929E2,1.1622938E3,4.691486E1,1.1547779E4,1.1458768E3,6.4006915E2,5.141339E2,2.7403693E2,7.0084287E3,1.0315159E1,6.6826117E2,6.817338E3,1.1578219E2,1.6148408E4,2.997872E2,3.1581595E2,8.5264E1,1.376654E2,4.6700336E2,1.2863777E2,1.2529912E0,2.0446987E1,7.3734465E0,1.2510977E0,1.1972983E0,7.157081E1,2.3265083E0,4.0084357E0,1.5422353E1,4.7627008E2,9.019123E1,2.9841444E1,3.251705E0,3.4791867E2,1.2596557E1,1.24351814E2,1.6374776E0,1.1235397E3,3.8754208E1,4.2922104E1,3.992754E0,1.1283785E4,2.639941E2,4.922969E2,6.535799E2,4.7424716E2,1.6582199E2,1.2601066E2,3.881233E2,7.996785E1,1.9406909E2,6.547623E3,4.6080554E2,9.1744795E0,1.14068E0,6.4873334E2,1.9527807E1,6.7138267E3,1.0351123E2,1.12996796E2,2.7853937E0,1.5745621E4,4.0278674E2,1.7212386E2,1.2766335E2,2.411608E2,7.465516E1,4.995837E1,3.530563E1,6.07194E1,7.694601E1,3.5934714E2,1.0765622E2],"tree_param":{"num_deleted":"0","num_feature":"196","num_nodes":"113","size_leaf_vector":"0"}},{"base_weights":[-3.181588E-1,-4.486808E-1,-2.32978E-1,-5.7750154E-1,-4.2750177E-1,-2.4373794E-1,1.3537277E-1,-1.6212757E-1,-5.822682E-1,-4.7618383E-1,-3.8912126E-1,-2.2181629E-1,-3.767726E-1,6.44415E-1,-2.8826687E-1,-5.6456375E-1,4.5167856E-2,-5.8347565E-1,3.4421545E-1,-4.9151632E-1,-3.6935064E-1,-2.951089E-1,-4.0808353E-1,6.1097085E-1,-2.2468603E-1,-4.0204307E-1,-3.2586795E-1,6.5258694E-1,-4.323184E-1,-3.515049E-1,-5.342184E-2,-7.328745E-2,3.6669186E-1,-5.842643E-1,4.7197107E-2,4.0132806E-1,1.1552876E-1,-1.4406413E-1,-4.9479485E-1,1.073532E0,-3.836163E-1,-3.0904788E-1,1.8938512E-1,-4.105257E-1,3.2897976E-1,6.59985E-1,-1.450834E-1,-2.1775779E-1,-3.8230848E-1,-4.0495312E-1,-2.2885423E-2,-3.0262166E-1,-4.6326807E-1,6.751455E-1,2.974955E-1,-2.6307836E-1,-5.560586E-1,2.5884366E-1,-2.773799E-1,1.4353001E-1,-3.8291615E-1,7.2227633E-1,-3.759223E-1,-5.850504E-1,-1.7201218E-1,5.9492886E-1,-4.012527E-1,-4.9163985E-1,4.1353592E-1,-4.9811533E-1,-2.2871904E-1,1.2707161E0,5.9615012E-2,-3.930654E-1,2.8846747E-1,-3.1367075E-1,5.735521E-1,3.5821316E-1,-3.711979E-1,1.5075725E-1,-4.1315004E-1,9.4264483E-1,9.341823E-2,6.8702114E-1,-3.7510556E-1,-2.5577244E-1,1.5000418E-1,-1.8406911E-1,-2.501779E-1,-2.0198171E-1,-4.1115466E-1,-4.086542E-1,-1.00749336E-1,-3.4431773E-1,4.9349055E-1,-3.1010407E-1,2.2071944E-1,-5.197571E-1,-3.1387594E-1,-2.298118E-1,6.834775E-1,6.365591E-1,-7.6078353E-3,-4.9641675E-1,-1.9438045E-1,-5.7481354E-1,1.1043781E-1,-9.140076E-2,4.9429572E-1,-3.2189715E-1,5.082277E-1],"categories":[],"categories_nodes":[],"categories_segments":[],"categories_sizes":[],"default_left":[1,1,1,1,1,1,1,1,1,1,1,1,1,1,1,0,1,1,1,1,1,1,1,1,1,1,1,1,0,1,1,1,1,1,1,0,0,1,1,1,1,1,1,1,1,1,1,1,1,1,1,1,1,1,1,1,1,1,1,0,0,0,0,0,0,0,0,0,0,0,0,0,0,0,0,0,0,0,0,0,0,0,0,0,0,0,0,0,0,0,0,0,0,0,0,0,0,0,0,0,0,0,0,0,0,0,0,0,0,0,0],"id":6,"left_children":[1,3,5,7,9,11,13,15,17,19,21,23,25,27,29,-1,31,33,35,37,39,41,43,45,47,49,51,53,-1,55,57,59,61,63,65,-1,-1,67,69,71,73,75,77,79,81,83,85,87,89,91,93,95,97,99,101,103,105,107,109,-1,-1,-1,-1,-1,-1,-1,-1,-1,-1,-1,-1,-1,-1,-1,-1,-1,-1,-1,-1,-1,-1,-1,-1,-1,-1,-1,-1,-1,-1,-1,-1,-1,-1,-1,-1,-1,-1,-1,-1,-1,-1,-1,-1,-1,-1,-1,-1,-1,-1,-1,-1],"loss_changes":[4.6508105E2,4.4829834E1,1.0038721E2,4.518738E0,2.6333496E1,7.1663574E1,1.5529834E2,2.3463223E0,2.7772827E0,1.0059814E1,1.4036987E1,5.0620728E1,4.3442993E0,3.159546E0,5.8215904E0,0E0,7.614676E-1,1.171814E0,1.001209E-3,6.1536865E0,1.664666E1,9.084869E0,1.2026123E1,2.7939167E0,2.2906494E1,2.5512085E0,3.5629807E0,2.4021301E0,0E0,5.454685E0,5.988883E0,1.0571387E0,1.6867259E0,6.4398193E-1,1.171728E0,0E0,0E0,1.0376708E1,4.668579E0,1.5206671E0,5.077896E0,5.4823914E0,3.729187E0,9.761475E0,3.1458433E0,2.1762867E0,2.0993358E-1,2.198114E1,4.5207367E0,2.5515442E0,3.27953E0,3.962822E0,1.2367821E0,2.4549408E0,2.197816E0,3.3994808E0,1.2204933E0,3.0019844E0,1.9036534E0,0E0,0E0,0E0,0E0,0E0,0E0,0E0,0E0,0E0,0E0,0E0,0E0,0E0,0E0,0E0,0E0,0E0,0E0,0E0,0E0,0E0,0E0,0E0,0E0,0E0,0E0,0E0,0E0,0E0,0E0,0E0,0E0,0E0,0E0,0E0,0E0,0E0,0E0,0E0,0E0,0E0,0E0,0E0,0E0,0E0,0E0,0E0,0E0,0E0,0E0,0E0,0E0],"parents":[2147483647,0,0,1,1,2,2,3,3,4,4,5,5,6,6,7,7,8,8,9,9,10,10,11,11,12,12,13,13,14,14,16,16,17,17,18,18,19,19,20,20,21,21,22,22,23,23,24,24,25,25,26,26,27,27,29,29,30,30,31,31,32,32,33,33,34,34,37,37,38,38,39,39,40,40,41,41,42,42,43,43,44,44,45,45,46,46,47,47,48,48,49,49,50,50,51,51,52,52,53,53,54,54,55,55,56,56,57,57,58,58],"right_children":[2,4,6,8,10,12,14,16,18,20,22,24,26,28,30,-1,32,34,36,38,40,42,44,46,48,50,52,54,-1,56,58,60,62,64,66,-1,-1,68,70,72,74,76,78,80,82,84,86,88,90,92,94,96,98,100,102,104,106,108,110,-1,-1,-1,-1,-1,-1,-1,-1,-1,-1,-1,-1,-1,-1,-1,-1,-1,-1,-1,-1,-1,-1,-1,-1,-1,-1,-1,-1,-1,-1,-1,-1,-1,-1,-1,-1,-1,-1,-1,-1,-1,-1,-1,-1,-1,-1,-1,-1,-1,-1,-1,-1],"split_conditions":[8.571E3,2.47E2,6.230805E5,5.4E1,1.0897235E6,6.20277E5,6.231065E5,1.05E1,5E-1,2.6745E3,2.833465E6,8.5825E3,3.2246175E6,5E-1,6.23879E5,-1.6936913E-1,2.129582E6,5E-1,1.0838175E6,3.09E2,2.691E3,5E-1,5E-1,5E-1,5.0049175E6,5E-1,6.226755E5,5E-1,-1.2969552E-1,6.23561E5,6.23956E5,1.054846E6,3.427081E6,5E-1,2.06E2,1.20398425E-1,3.465863E-2,2.98E2,5E-1,1.079851E6,5E-1,5E-1,2.2595E3,3.02E2,3.1709455E6,5E-1,2.1113465E6,6.10444E5,2.5021E4,5E-1,2.096698E6,6.226335E5,6.22759E5,6.23086E5,1.009726E6,6.23198E5,5E-1,6.239465E5,5E-1,4.3059006E-2,-1.1487485E-1,2.1668291E-1,-1.1277669E-1,-1.7551513E-1,-5.1603656E-2,1.7847866E-1,-1.2037581E-1,-1.4749196E-1,1.2406078E-1,-1.4943461E-1,-6.861571E-2,3.8121483E-1,1.7884504E-2,-1.17919624E-1,8.6540245E-2,-9.410123E-2,1.7206563E-1,1.0746395E-1,-1.1135938E-1,4.5227177E-2,-1.2394502E-1,2.8279346E-1,2.802547E-2,2.0610635E-1,-1.1253167E-1,-7.6731734E-2,4.5001253E-2,-5.5220734E-2,-7.505337E-2,-6.0594514E-2,-1.233464E-1,-1.2259627E-1,-3.0224802E-2,-1.03295326E-1,1.4804716E-1,-9.303123E-2,6.6215836E-2,-1.5592714E-1,-9.4162785E-2,-6.8943545E-2,2.0504327E-1,1.9096775E-1,-2.2823508E-3,-1.4892504E-1,-5.8314137E-2,-1.7244408E-1,3.3131346E-2,-2.7420228E-2,1.4828873E-1,-9.656915E-2,1.5246832E-1],"split_indices":[1,1,1,1,0,1,1,1,194,1,0,1,0,89,1,0,0,112,0,1,1,112,127,38,0,132,1,181,0,1,1,0,0,82,1,0,0,1,31,0,53,53,1,1,0,57,0,1,1,101,0,1,1,1,0,1,171,1,122,0,0,0,0,0,0,0,0,0,0,0,0,0,0,0,0,0,0,0,0,0,0,0,0,0,0,0,0,0,0,0,0,0,0,0,0,0,0,0,0,0,0,0,0,0,0,0,0,0,0,0,0],"split_type":[0,0,0,0,0,0,0,0,0,0,0,0,0,0,0,0,0,0,0,0,0,0,0,0,0,0,0,0,0,0,0,0,0,0,0,0,0,0,0,0,0,0,0,0,0,0,0,0,0,0,0,0,0,0,0,0,0,0,0,0,0,0,0,0,0,0,0,0,0,0,0,0,0,0,0,0,0,0,0,0,0,0,0,0,0,0,0,0,0,0,0,0,0,0,0,0,0,0,0,0,0,0,0,0,0,0,0,0,0,0,0],"sum_hessian":[4.1839895E4,1.6520842E4,2.531905E4,2.328931E3,1.4191912E4,2.4600773E4,7.182778E2,2.6819876E1,2.302111E3,6.251307E3,7.940605E3,2.1122793E4,3.4779795E3,3.26017E2,3.9226077E2,8.532228E0,1.8287647E1,2.2994846E3,2.6265624E0,5.463583E3,7.8772394E2,1.3355735E3,6.6050312E3,7.181051E1,2.1050982E4,2.3195793E3,1.1584003E3,3.2395227E2,2.0647178E0,3.0865167E2,8.360909E1,1.3928278E1,4.3593693E0,2.296686E3,2.798438E0,1.4976194E0,1.128943E0,5.1492073E1,5.412091E3,6.9849677E0,7.8073895E2,1.2985754E3,3.6998074E1,6.58366E3,2.1371302E1,6.755788E1,4.252635E0,2.0166936E4,8.840483E2,2.3018445E3,1.773487E1,9.9351337E2,1.6488686E2,3.0375378E2,2.01985E1,2.1709137E2,9.15603E1,3.485495E1,4.8754147E1,8.50741E0,5.4208684E0,2.9663734E0,1.392996E0,2.2918967E3,4.78953E0,1.1127288E0,1.6857092E0,3.1792658E1,1.9699417E1,5.344522E3,6.75688E1,5.63568E0,1.3492874E0,7.703238E2,1.0415146E1,1.2924504E3,6.1249995E0,2.8712017E1,8.286058E0,3.0376345E1,6.5532837E3,5.0954275E0,1.6275873E1,6.616592E1,1.3919555E0,3.1894765E0,1.0631588E0,9.893246E3,1.0273688E4,1.2301902E2,7.610293E2,2.2738367E3,2.8007915E1,1.1136103E1,6.5987678E0,9.7991064E2,1.3602735E1,1.1784679E2,4.7040066E1,2.5286584E0,3.0122513E2,9.052272E0,1.1146229E1,4.796115E1,1.6913022E2,8.918814E1,2.3721602E0,1.425776E1,2.0597189E1,4.66982E1,2.0559437E0],"tree_param":{"num_deleted":"0","num_feature":"196","num_nodes":"111","size_leaf_vector":"0"}},{"base_weights":[-4.7771725E-1,-5.866439E-1,-4.1595876E-1,-5.8744895E-1,-2.7644625E-1,-4.18727E-1,3.511559E-1,-5.8818346E-1,-3.4952193E-1,-1.2959938E-1,-5.827873E-1,-4.9624607E-1,-3.935725E-1,-4.1887194E-1,7.0363E-1,-5.887853E-1,-3.0973673E-1,-4.8180172E-1,1.5714605E-1,-5.0308496E-1,1.7107724E-1,-5.0486964E-1,-2.7097479E-1,-3.2993063E-1,-4.2977986E-1,-5.9139746E-1,-2.1029322E-1,1.0104591E0,-3.404336E-1,-5.8938074E-1,-3.059189E-1,8.274523E-1,-3.8378057E-1,4.442795E-2,-5.255637E-1,4.6580184E-1,-4.7244248E-1,1.1143955E0,-3.1781787E-1,-4.9719167E-1,-5.7243174E-1,-1.4924477E-1,-4.8566607E-1,-3.4875172E-1,1.6506864E-1,-4.3191066E-1,1.7390515E-1,2.2486548E-1,-4.7004825E-1,-6.7532E-2,1.1845368E0,5.647544E-2,-5.6695724E-1,-6.069141E-1,-5.812093E-1,5.640301E-1,-4.0524673E-1,-4.202853E-1,-5.4051306E-2,-4.139616E-1,6.388636E-1,-5.6933516E-1,-3.2456177E-1,-2.7069991E-2,1.2551924E0,-4.7259006E-1,5.991762E-1,-5.008738E-1,-2.8259405E-1,-2.9017168E-1,-5.750602E-1,-1.704553E-1,5.307701E-1,-5.18317E-1,-1.7613788E-1,-3.5486972E-1,4.017346E-1,1.2257056E0,-2.292777E-1,-4.3434566E-1,8.6093426E-2,-8.4640495E-2,5.0309443E-1,-3.2758468E-1,3.9548492E-1,-5.5378723E-1,-6.389693E-2,9.018013E-2,-4.0333188E-1,-2.4806227E-1,4.1583973E-1],"categories":[],"categories_nodes":[],"categories_segments":[],"categories_sizes":[],"default_left":[1,1,1,1,1,1,1,1,1,1,0,1,1,1,1,1,1,1,1,0,1,1,1,1,1,0,1,1,1,1,1,0,1,1,1,1,0,0,1,1,1,1,1,1,1,1,1,1,1,1,0,1,0,0,0,0,0,0,0,0,0,0,0,0,0,0,0,0,0,0,0,0,0,0,0,0,0,0,0,0,0,0,0,0,0,0,0,0,0,0,0],"id":7,"left_children":[1,3,5,7,9,11,13,15,17,19,-1,21,23,25,27,29,31,33,35,-1,37,39,41,43,45,-1,47,49,51,53,55,-1,57,59,61,63,-1,-1,65,67,69,71,73,75,77,79,81,83,85,87,-1,89,-1,-1,-1,-1,-1,-1,-1,-1,-1,-1,-1,-1,-1,-1,-1,-1,-1,-1,-1,-1,-1,-1,-1,-1,-1,-1,-1,-1,-1,-1,-1,-1,-1,-1,-1,-1,-1,-1,-1],"loss_changes":[2.7161914E2,3.4887695E0,5.4922363E1,2.3427734E0,1.7120192E0,4.9921387E1,2.5615095E1,2.253418E0,3.2483726E0,3.2468743E0,0E0,1.2088257E1,4.4583984E1,9.523339E-1,2.0964733E1,2.2626953E0,3.1348443E0,8.934574E-1,2.2710307E0,0E0,7.8896365E0,2.8587646E0,6.047554E0,6.566974E1,1.5984863E1,0E0,1.8121672E0,9.462948E0,1.4137717E0,1.7207031E0,3.0407076E0,0E0,3.6361837E-1,1.3061498E0,1.22802734E-1,2.9853482E0,0E0,0E0,1.9209718E0,4.1641846E0,2.8700256E-1,2.2667692E0,7.6057434E-1,3.1295776E1,1.08462975E2,1.5583008E1,3.8057394E0,7.252268E-1,2.9714847E-1,4.5464015E-1,0E0,8.137992E-1,0E0,0E0,0E0,0E0,0E0,0E0,0E0,0E0,0E0,0E0,0E0,0E0,0E0,0E0,0E0,0E0,0E0,0E0,0E0,0E0,0E0,0E0,0E0,0E0,0E0,0E0,0E0,0E0,0E0,0E0,0E0,0E0,0E0,0E0,0E0,0E0,0E0,0E0,0E0],"parents":[2147483647,0,0,1,1,2,2,3,3,4,4,5,5,6,6,7,7,8,8,9,9,11,11,12,12,13,13,14,14,15,15,16,16,17,17,18,18,20,20,21,21,22,22,23,23,24,24,26,26,27,27,28,28,29,29,30,30,32,32,33,33,34,34,35,35,38,38,39,39,40,40,41,41,42,42,43,43,44,44,45,45,46,46,47,47,48,48,49,49,51,51],"right_children":[2,4,6,8,10,12,14,16,18,20,-1,22,24,26,28,30,32,34,36,-1,38,40,42,44,46,-1,48,50,52,54,56,-1,58,60,62,64,-1,-1,66,68,70,72,74,76,78,80,82,84,86,88,-1,90,-1,-1,-1,-1,-1,-1,-1,-1,-1,-1,-1,-1,-1,-1,-1,-1,-1,-1,-1,-1,-1,-1,-1,-1,-1,-1,-1,-1,-1,-1,-1,-1,-1,-1,-1,-1,-1,-1,-1],"split_conditions":[2.685E3,5E-1,5E-1,5E-1,1.9395E3,1.050116E6,3.3212685E6,5E-1,3.4192875E6,4.4363095E6,-1.7483619E-1,6.23085E5,6.082355E5,3.2294675E6,3.3314395E6,5E-1,1.59E2,1.95E2,3.4288595E6,-1.5092549E-1,4.442654E6,6.202775E5,6.23091E5,6.076915E5,5E-1,-1.7741925E-1,3.2313145E6,3.1184E4,3.334191E6,1.057377E6,2.001393E6,2.482357E-1,3.426168E6,3.206245E6,2.0935E3,3.4287125E6,-1.4173275E-1,3.3431867E-1,4.6236225E6,6.202535E5,1.000857E6,5E-1,5E-1,5E-1,6.0771E5,5E-1,3.3217385E6,3.13664E5,6.189825E5,3.3314325E6,3.5536104E-1,3.3314415E6,-1.7008717E-1,-1.8207423E-1,-1.743628E-1,1.6920903E-1,-1.2157402E-1,-1.260856E-1,-1.6215393E-2,-1.2418848E-1,1.916591E-1,-1.7080055E-1,-9.736854E-2,-8.120998E-3,3.7655774E-1,-1.4177702E-1,1.7975287E-1,-1.5026215E-1,-8.477822E-2,-8.705151E-2,-1.7251806E-1,-5.1136594E-2,1.5923104E-1,-1.554951E-1,-5.2841365E-2,-1.0646092E-1,1.2052038E-1,3.677117E-1,-6.878331E-2,-1.3030371E-1,2.5828028E-2,-2.539215E-2,1.5092833E-1,-9.827541E-2,1.1864548E-1,-1.6613618E-1,-1.9169081E-2,2.705404E-2,-1.2099957E-1,-7.441869E-2,1.24751925E-1],"split_indices":[1,82,29,25,1,0,0,150,0,0,0,1,1,0,0,112,1,1,0,0,0,1,1,1,150,0,0,1,0,0,0,0,0,0,1,0,0,0,0,1,0,36,172,25,1,101,0,1,1,0,0,0,0,0,0,0,0,0,0,0,0,0,0,0,0,0,0,0,0,0,0,0,0,0,0,0,0,0,0,0,0,0,0,0,0,0,0,0,0,0,0],"split_type":[0,0,0,0,0,0,0,0,0,0,0,0,0,0,0,0,0,0,0,0,0,0,0,0,0,0,0,0,0,0,0,0,0,0,0,0,0,0,0,0,0,0,0,0,0,0,0,0,0,0,0,0,0,0,0,0,0,0,0,0,0,0,0,0,0,0,0,0,0,0,0,0,0,0,0,0,0,0,0,0,0,0,0,0,0,0,0,0,0,0,0],"sum_hessian":[4.0411973E4,1.4619068E4,2.5792902E4,1.4580332E4,3.8736343E1,2.5700613E4,9.2290276E1,1.4533994E4,4.6337627E1,2.7146515E1,1.15898285E1,6.2919316E3,1.9408682E4,2.892069E1,6.3369583E1,1.4501536E4,3.2458702E1,3.6783382E1,9.554247E0,1.1807119E1,1.5339395E1,6.058756E3,2.3317581E2,7.041646E3,1.2367035E4,1.4823821E1,1.4096869E1,4.9001286E1,1.43682995E1,1.4469992E4,3.1544046E1,1.3622141E0,3.1096487E1,2.8229334E0,3.396045E1,6.5857377E0,2.968509E0,4.799463E0,1.0539931E1,5.447987E3,6.107688E2,1.4988573E2,8.329009E1,6.783997E3,2.5764865E2,1.232382E4,4.3214977E1,5.3195415E0,8.777328E0,6.8978453E0,4.210344E1,5.4934688E0,8.874831E0,4.576655E3,9.893337E3,2.753083E0,2.8790962E1,2.7749653E1,3.3468347E0,1.7652754E0,1.0576582E0,2.6382702E1,7.577745E0,4.648845E0,1.9368923E0,9.432522E0,1.1074097E0,5.3547734E3,9.321365E1,6.6628127E0,6.04106E2,1.4607867E2,3.8070443E0,7.473232E1,8.557764E0,6.7296636E3,5.433343E1,6.9259514E1,1.8838913E2,1.2266321E4,5.749909E1,2.462072E1,1.859426E1,1.0381461E0,4.281395E0,6.975618E0,1.8017101E0,5.1911917E0,1.7066537E0,3.1412144E0,2.3522542E0],"tree_param":{"num_deleted":"0","num_feature":"196","num_nodes":"91","size_leaf_vector":"0"}},{"base_weights":[2.7710485E-1,6.749486E-1,2.4763942E-1,2.5769988E-1,7.064879E-1,1.9590048E-1,3.0103648E-1,4.0825474E-1,-1.3566835E-1,6.389026E-1,7.5297976E-1,2.79586E-1,1.33569E-1,3.0583856E-1,-6.891966E-1,3.3687535E-1,6.500316E-1,-6.6411606E-4,-5.64155E-1,6.411621E-1,-6.085134E-1,7.5540185E-1,-4.649208E-1,4.127093E-1,2.3279148E-1,1.6082452E-1,-4.8162404E-2,3.107925E-1,-3.6872792E-1,3.7158692E-1,-4.7413936E-1,6.9987875E-1,-3.2286547E-2,-2.2276665E-1,2.7646595E-1,6.431176E-1,-2.652335E-1,7.589816E-1,3.1515867E-1,2.0165248E-2,4.3919808E-1,2.1832901E-1,5.9244555E-1,1.3750398E-1,4.522731E-1,-4.537844E-1,-8.938159E-3,3.0439058E-1,8.0920637E-1,-4.0969872E-1,1.9192272E-1,1.0583738E-1,4.6758103E-1,-5.635124E-1,-2.0449965E-1,1.0717919E0,6.005692E-1,-4.3302676E-1,3.7343457E-1,-3.0154207E-1,2.2789215E-1,3.1605655E-1,-3.2523984E-1,6.506627E-1,4.0326387E-1,7.655568E-1,5.228109E-1,9.30214E-3,5.08025E-1,2.5954762E-1,-3.016128E-1,3.8670978E-1,6.339249E-1,2.0445047E-1,6.11889E-1,6.493436E-1,2.6186877E-1,1.3367446E-1,1.1901437E0,5.02021E-1,1.8328223E-1,2.3846368E-1,-5.064747E-1,1.0067042E-1,-1.10143416E-1,3.0940253E-1,-2.9138842E-1,8.1846935E-1,-4.7913742E-1,-2.9703704E-1,-4.49589E-1,3.7903494E-1,-2.9885304E-1],"categories":[],"categories_nodes":[],"categories_segments":[],"categories_sizes":[],"default_left":[1,1,1,1,1,1,1,1,1,1,1,1,1,1,0,1,1,1,0,1,0,1,0,1,1,1,1,1,1,1,1,1,1,1,1,1,0,1,1,1,1,1,1,1,1,1,1,1,1,1,1,0,0,0,0,0,0,0,0,0,0,0,0,0,0,0,0,0,0,0,0,0,0,0,0,0,0,0,0,0,0,0,0,0,0,0,0,0,0,0,0,0,0],"id":8,"left_children":[1,3,5,7,9,11,13,15,17,19,21,23,25,27,-1,29,31,33,-1,35,-1,37,-1,39,41,43,45,47,49,51,53,55,57,59,61,63,-1,65,67,69,71,73,75,77,79,81,83,85,87,89,91,-1,-1,-1,-1,-1,-1,-1,-1,-1,-1,-1,-1,-1,-1,-1,-1,-1,-1,-1,-1,-1,-1,-1,-1,-1,-1,-1,-1,-1,-1,-1,-1,-1,-1,-1,-1,-1,-1,-1,-1,-1,-1],"loss_changes":[6.096782E2,4.7017944E1,1.3375854E2,1.507655E1,9.995117E0,1.2829993E2,1.1354956E2,2.950945E0,4.1042175E0,4.2385864E0,6.161499E0,6.532379E1,6.986076E1,7.938306E1,0E0,4.2268734E0,1.409977E0,3.4442413E0,0E0,2.5871582E0,0E0,2.859253E0,0E0,2.8378632E1,4.030002E1,8.329065E1,2.9270735E1,7.489087E1,4.0614166E0,3.484808E0,3.7668467E-2,7.6198196E-1,7.6865983E-1,1.1714065E0,6.9585896E-1,2.2002563E0,0E0,2.6271973E0,1.0316229E0,1.3452503E1,2.5894287E1,4.069687E1,5.4706345E0,4.5620102E1,1.2060593E1,6.0377655E0,1.8633715E1,6.951782E1,3.9487762E0,5.9404945E-1,1.2601293E0,0E0,0E0,0E0,0E0,0E0,0E0,0E0,0E0,0E0,0E0,0E0,0E0,0E0,0E0,0E0,0E0,0E0,0E0,0E0,0E0,0E0,0E0,0E0,0E0,0E0,0E0,0E0,0E0,0E0,0E0,0E0,0E0,0E0,0E0,0E0,0E0,0E0,0E0,0E0,0E0,0E0,0E0],"parents":[2147483647,0,0,1,1,2,2,3,3,4,4,5,5,6,6,7,7,8,8,9,9,10,10,11,11,12,12,13,13,15,15,16,16,17,17,19,19,21,21,23,23,24,24,25,25,26,26,27,27,28,28,29,29,30,30,31,31,32,32,33,33,34,34,35,35,37,37,38,38,39,39,40,40,41,41,42,42,43,43,44,44,45,45,46,46,47,47,48,48,49,49,50,50],"right_children":[2,4,6,8,10,12,14,16,18,20,22,24,26,28,-1,30,32,34,-1,36,-1,38,-1,40,42,44,46,48,50,52,54,56,58,60,62,64,-1,66,68,70,72,74,76,78,80,82,84,86,88,90,92,-1,-1,-1,-1,-1,-1,-1,-1,-1,-1,-1,-1,-1,-1,-1,-1,-1,-1,-1,-1,-1,-1,-1,-1,-1,-1,-1,-1,-1,-1,-1,-1,-1,-1,-1,-1,-1,-1,-1,-1,-1,-1],"split_conditions":[2.47E2,1.45E2,3.001941E6,1.125E2,2.0080735E6,1.0401395E6,5E-1,3.062875E6,1.295E2,2.0080105E6,5E-1,1.856E3,2.090412E6,5E-1,-2.0675899E-1,2.129582E6,5E-1,1.26E2,-1.692465E-1,5E-1,-1.8255404E-1,5E-1,-1.3947624E-1,4.1E2,5E-1,2.0287245E6,2.0923955E6,5E-1,6.21508E5,8.65E1,5E-1,3.1914455E6,4.4846425E6,5E-1,4.6235785E6,5E-1,-7.957005E-2,5E-1,3.059259E6,3.665E2,1.0341945E6,5E-1,1.006844E6,5E-1,2.0841635E6,1.6195E3,2.1286945E6,5E-1,3.4289195E6,1.26295E4,6.22819E5,3.1751215E-2,1.4027432E-1,-1.6905372E-1,-6.1349895E-2,3.2153758E-1,1.8017076E-1,-1.2990804E-1,1.1203038E-1,-9.0462625E-2,6.8367645E-2,9.481697E-2,-9.7571954E-2,1.9519882E-1,1.2097917E-1,2.2966705E-1,1.5684327E-1,2.7906422E-3,1.524075E-1,7.786429E-2,-9.0483844E-2,1.1601294E-1,1.9017749E-1,6.1335143E-2,1.835667E-1,1.9480309E-1,7.8560635E-2,4.010234E-2,3.5704312E-1,1.506063E-1,5.498467E-2,7.153911E-2,-1.519424E-1,3.0201128E-2,-3.3043027E-2,9.282076E-2,-8.741653E-2,2.4554081E-1,-1.4374124E-1,-8.911111E-2,-1.3487671E-1,1.13710485E-1,-8.965591E-2],"split_indices":[1,1,0,1,0,0,150,0,1,0,150,1,0,128,0,0,87,1,0,194,0,69,0,1,57,0,0,18,1,1,45,0,0,152,0,97,0,45,0,1,0,34,0,165,0,1,0,25,0,1,1,0,0,0,0,0,0,0,0,0,0,0,0,0,0,0,0,0,0,0,0,0,0,0,0,0,0,0,0,0,0,0,0,0,0,0,0,0,0,0,0,0,0],"split_type":[0,0,0,0,0,0,0,0,0,0,0,0,0,0,0,0,0,0,0,0,0,0,0,0,0,0,0,0,0,0,0,0,0,0,0,0,0,0,0,0,0,0,0,0,0,0,0,0,0,0,0,0,0,0,0,0,0,0,0,0,0,0,0,0,0,0,0,0,0,0,0,0,0,0,0,0,0,0,0,0,0,0,0,0,0,0,0,0,0,0,0,0,0],"sum_hessian":[5.2021836E4,3.5856975E3,4.8436137E4,2.5263518E2,3.3330623E3,2.4602389E4,2.383375E4,1.8267981E2,6.995537E1,1.3643893E3,1.968673E3,1.0500737E4,1.410165E4,2.3719414E4,1.1433479E2,1.4288841E2,3.9791386E1,5.3956673E1,1.5998698E1,1.3624075E3,1.9817929E0,1.9651445E3,3.5284026E0,2.7290845E3,7.7716533E3,1.2262651E4,1.8389998E3,2.3547027E4,1.7238852E2,1.3754337E2,5.3450584E0,3.7058334E1,2.733054E0,3.0060896E1,2.3895777E1,1.3597643E3,2.6431973E0,1.9485762E3,1.6568382E1,1.7262807E2,2.5564563E3,7.472764E3,2.9888907E2,1.1355501E4,9.0714966E2,1.6122157E2,1.6777782E3,2.325E4,2.9702625E2,1.6089967E2,1.1488857E1,3.7057137E1,1.0048622E2,3.1958957E0,2.1491625E0,5.746249E0,3.1312084E1,1.3411084E0,1.3919455E0,2.5869738E1,4.191159E0,2.2865988E1,1.0297881E0,1.316634E3,4.31303E1,1.8936146E3,5.49616E1,6.8127046E0,9.755677E0,9.9098495E1,7.352957E1,2.0160255E3,5.404308E2,7.219688E3,2.5307626E2,2.5417654E2,4.4712532E1,1.1315463E4,4.0038784E1,7.648331E2,1.4231656E2,1.1153986E1,1.500676E2,8.054524E2,8.7232574E2,2.305652E4,1.9348015E2,2.9526804E2,1.758217E0,4.4281708E1,1.1661796E2,8.482512E0,3.0063446E0],"tree_param":{"num_deleted":"0","num_feature":"196","num_nodes":"93","size_leaf_vector":"0"}},{"base_weights":[2.3174725E-1,-9.793545E-2,2.4794772E-1,3.6874765E-1,-1.5746066E-1,3.083088E-1,1.9339025E-1,2.5632828E-1,5.9271353E-1,-4.9952697E-2,-2.598946E-1,3.2405815E-1,1.2254407E-1,2.0259243E-1,-2.9729273E-2,2.861135E-1,-5.1099277E-1,7.2349244E-1,4.3747076E-1,-1.445199E-1,-1.7311558E-2,-2.6739925E-1,8.5161716E-1,3.8125736E-1,2.8852654E-1,1.11419655E-1,8.079736E-1,3.766378E-1,1.948113E-1,-3.5015773E-2,1.4486821E0,3.4149793E-1,1.293143E-1,2.775522E-1,7.6806605E-1,-5.1591516E-1,5.664174E-1,8.078312E-1,-1.5541412E-1,1.4593824E0,-2.2466583E-2,-2.8036734E-1,3.610441E-2,3.3065873E-1,4.7261798E-1,2.7886808E-1,6.834998E-1,1.7720455E-1,2.4877783E-2,-4.6026337E-1,9.063467E-1,2.596245E-1,4.4340163E-1,-1.7597087E-1,1.9969255E-1,6.0526505E-2,-9.9638365E-2,3.0418417E-1,8.889326E-1,-3.6631685E-1,2.1213762E-1,6.1217856E-1,-2.6179153E-1,7.8185153E-1,2.355759E-1,8.8812876E-1,3.886456E-1,8.396125E-2,-1.9875215E-1,1.3816302E-1,-5.3021986E-2,-2.8591228E-1,4.5929658E-1,-9.9956706E-2,1.3825176E0,2.5924385E-1,4.060615E-1,6.4375013E-1,4.2415997E-1,-3.5841164E-1,2.8222772E-1,7.762711E-1,4.2600477E-1,-1.6142999E-1,2.1660452E-1,3.5858896E-2,-4.0032405E-1,9.717721E-1,1.4065662E-1,2.6810146E-3,2.9421443E-1,5.980505E-1,3.6414668E-1,2.2356021E-1,-3.819874E-1,2.5660983E-1,1.798148E-1,1.13507636E-1,-2.1787196E-1,-1.1629071E-1,3.9489606E-1],"categories":[],"categories_nodes":[],"categories_segments":[],"categories_sizes":[],"default_left":[1,1,1,1,1,1,1,1,1,1,1,1,1,1,1,1,0,1,1,1,1,1,0,1,1,1,1,1,1,1,0,1,1,1,1,0,1,0,1,0,1,1,1,1,1,1,1,1,1,0,1,1,1,1,1,1,1,0,0,0,0,0,0,0,0,0,0,0,0,0,0,0,0,0,0,0,0,0,0,0,0,0,0,0,0,0,0,0,0,0,0,0,0,0,0,0,0,0,0,0,0],"id":9,"left_children":[1,3,5,7,9,11,13,15,17,19,21,23,25,27,29,31,-1,33,35,37,39,41,-1,43,45,47,49,51,53,55,-1,57,59,61,63,-1,65,-1,67,-1,69,71,73,75,77,79,81,83,85,-1,87,89,91,93,95,97,99,-1,-1,-1,-1,-1,-1,-1,-1,-1,-1,-1,-1,-1,-1,-1,-1,-1,-1,-1,-1,-1,-1,-1,-1,-1,-1,-1,-1,-1,-1,-1,-1,-1,-1,-1,-1,-1,-1,-1,-1,-1,-1,-1,-1],"loss_changes":[2.715415E2,6.622258E1,1.5951147E2,6.6393356E0,2.325695E1,6.725781E1,5.226764E1,4.29088E0,1.498148E0,3.183767E0,9.251762E0,4.2984863E1,1.3630165E1,3.3032898E1,7.9374213E0,1.4774275E0,0E0,7.207184E-1,5.6273375E0,2.8721561E0,5.8829145E0,4.24247E0,0E0,3.738806E1,4.9720703E1,1.0082657E1,3.9824486E0,8.04924E0,4.2389526E1,6.220196E0,0E0,2.361988E0,2.0211582E0,1.2134066E0,1.252079E-1,0E0,1.8683558E0,0E0,2.7406497E0,0E0,3.7709157E0,4.361397E0,8.372746E0,2.8058594E1,2.371344E1,2.7448364E1,7.113083E0,1.3463205E1,3.5925467E0,0E0,1.2087231E0,3.3949509E0,7.920639E0,2.5157536E1,2.6086792E1,6.023647E0,4.9933176E0,0E0,0E0,0E0,0E0,0E0,0E0,0E0,0E0,0E0,0E0,0E0,0E0,0E0,0E0,0E0,0E0,0E0,0E0,0E0,0E0,0E0,0E0,0E0,0E0,0E0,0E0,0E0,0E0,0E0,0E0,0E0,0E0,0E0,0E0,0E0,0E0,0E0,0E0,0E0,0E0,0E0,0E0,0E0,0E0],"parents":[2147483647,0,0,1,1,2,2,3,3,4,4,5,5,6,6,7,7,8,8,9,9,10,10,11,11,12,12,13,13,14,14,15,15,17,17,18,18,19,19,20,20,21,21,23,23,24,24,25,25,26,26,27,27,28,28,29,29,31,31,32,32,33,33,34,34,36,36,38,38,40,40,41,41,42,42,43,43,44,44,45,45,46,46,47,47,48,48,50,50,51,51,52,52,53,53,54,54,55,55,56,56],"right_children":[2,4,6,8,10,12,14,16,18,20,22,24,26,28,30,32,-1,34,36,38,40,42,-1,44,46,48,50,52,54,56,-1,58,60,62,64,-1,66,-1,68,-1,70,72,74,76,78,80,82,84,86,-1,88,90,92,94,96,98,100,-1,-1,-1,-1,-1,-1,-1,-1,-1,-1,-1,-1,-1,-1,-1,-1,-1,-1,-1,-1,-1,-1,-1,-1,-1,-1,-1,-1,-1,-1,-1,-1,-1,-1,-1,-1,-1,-1,-1,-1,-1,-1,-1,-1],"split_conditions":[2.395E2,1.45E2,2.0250955E6,1.19E2,2.0946755E6,6.20294E5,6.21967E5,5.171086E6,1.091657E6,1.016249E6,5E-1,2.658E3,5E-1,6.955E2,5E-1,1.0872275E6,-1.5329784E-1,1.004254E6,2.1001435E6,1.000051E6,1.016288E6,5E-1,2.5548515E-1,1.853E3,6.20251E5,6.22125E5,6.204645E5,4.765E2,7.575E2,3.14058E6,4.3460464E-1,1.0834865E6,1.0899195E6,1.001308E6,5E-1,-1.5477455E-1,3.320735E6,2.4234937E-1,1.615E2,4.3781474E-1,1.0323445E6,5E-1,4.621462E6,1.039965E6,2.0345E3,2.691E3,6.202775E5,6.20515E5,5E-1,-1.3807902E-1,6.225705E5,3.02E2,5.25E2,7.46E2,2.3115E3,6.23399E5,5E-1,9.1255255E-2,2.666798E-1,-1.0989506E-1,6.364129E-2,1.8365358E-1,-7.8537464E-2,2.3455547E-1,7.067277E-2,2.6643863E-1,1.1659368E-1,2.5188375E-2,-5.9625648E-2,4.1448906E-2,-1.5906597E-2,-8.5773684E-2,1.3778898E-1,-2.9987013E-2,4.1475528E-1,7.7773154E-2,1.2181845E-1,1.9312505E-1,1.27248E-1,-1.0752349E-1,8.466832E-2,2.3288134E-1,1.2780143E-1,-4.8428997E-2,6.4981356E-2,1.0757669E-2,-1.2009722E-1,2.9153162E-1,4.219699E-2,8.0430444E-4,8.826433E-2,1.7941515E-1,1.0924401E-1,6.706807E-2,-1.14596225E-1,7.698295E-2,5.3944442E-2,3.4052294E-2,-6.536159E-2,-3.4887213E-2,1.1846882E-1],"split_indices":[1,1,0,1,0,1,1,0,0,0,150,1,56,1,150,0,0,0,0,0,0,87,0,1,1,1,1,1,1,0,0,0,0,0,171,0,0,0,1,0,0,62,0,0,1,1,1,1,31,0,1,1,1,1,1,1,54,0,0,0,0,0,0,0,0,0,0,0,0,0,0,0,0,0,0,0,0,0,0,0,0,0,0,0,0,0,0,0,0,0,0,0,0,0,0,0,0,0,0,0,0],"split_type":[0,0,0,0,0,0,0,0,0,0,0,0,0,0,0,0,0,0,0,0,0,0,0,0,0,0,0,0,0,0,0,0,0,0,0,0,0,0,0,0,0,0,0,0,0,0,0,0,0,0,0,0,0,0,0,0,0,0,0,0,0,0,0,0,0,0,0,0,0,0,0,0,0,0,0,0,0,0,0,0,0,0,0,0,0,0,0,0,0,0,0,0,0,0,0,0,0,0,0,0,0],"sum_hessian":[5.0835227E4,2.380783E3,4.845444E4,2.6872888E2,2.1120542E3,2.300149E4,2.5452953E4,1.8034798E2,8.838091E1,1.0312302E3,1.080824E3,2.1203123E4,1.7983677E3,2.444486E4,1.00809375E3,1.7421266E2,6.1353145E0,4.5983406E1,4.239751E1,2.6372995E2,7.6750024E2,1.0743298E3,6.4941816E0,8.1206587E3,1.3082464E4,1.7707905E3,2.7577114E1,1.0440714E3,2.3400787E4,1.0054747E3,2.6190586E0,1.27869E2,4.6343662E1,4.8352804E0,4.1148125E1,4.693612E0,3.77039E1,2.155419E0,2.6157452E2,1.6886038E0,7.6581165E2,1.03038E3,4.39498E1,5.2291797E3,2.891479E3,1.2771854E4,3.1061002E2,1.0054495E3,7.6534106E2,1.7202827E0,2.585683E1,3.8107364E2,6.6299774E2,3.036062E2,2.3097182E4,4.057099E2,5.997648E2,1.21165855E2,6.703148E0,6.145414E0,4.0198246E1,2.9006064E0,1.934674E0,3.9653255E1,1.4948671E0,1.1997069E1,2.570683E1,3.995389E1,2.2162064E2,1.2183005E2,6.439816E2,1.0233221E3,7.0579166E0,4.0756893E1,3.1929066E0,2.6878875E3,2.5412922E3,6.3536566E2,2.2561133E3,6.64244E1,1.270543E4,2.2686098E2,8.374902E1,1.04468376E2,9.0098114E2,7.469658E2,1.8375212E1,2.3573423E1,2.2834063E0,4.534155E1,3.357321E2,2.2242935E2,4.4056836E2,1.0326248E2,2.0034372E2,5.9754277E3,1.7121754E4,3.413424E2,6.436751E1,5.8096686E2,1.8797922E1],"tree_param":{"num_deleted":"0","num_feature":"196","num_nodes":"101","size_leaf_vector":"0"}},{"base_weights":[-2.7417743E-1,-4.1113544E-1,-1.9927311E-1,-5.398435E-1,-3.8953376E-1,-2.086677E-1,1.1724131E-1,-1.4091623E-1,-5.4505366E-1,-4.4333783E-1,-3.493749E-1,-1.896391E-1,-3.3403045E-1,5.215674E-1,-2.588798E-1,-5.33577E-1,3.9456442E-2,-5.4639024E-1,2.741896E-1,-7.10661E-2,-4.464913E-1,-3.5236472E-1,2.339178E-1,-1.9375725E-1,9.9671446E-2,-4.0271837E-1,-3.147757E-1,5.278072E-1,-4.0603885E-1,-3.1823015E-1,-4.9149476E-2,-5.8499504E-2,2.9053742E-1,-5.472988E-1,8.793431E-2,-4.4859695E-1,6.533472E-1,-4.501553E-1,-1.6162461E-1,-3.549837E-1,1.7044303E-1,4.3866992E-1,-7.639566E-2,-2.5298712E-1,-1.781451E-1,1.732554E-1,-1.9638969E-1,-4.1882542E-1,-2.0560281E-1,-3.160693E-1,6.9332975E-1,5.027158E-1,8.1380033E-1,-2.318054E-1,-5.279687E-1,1.4654708E-1,-3.5070068E-1,1.3169518E-1,-3.5237148E-1,5.712034E-1,-3.5579813E-1,-5.132096E-1,-5.631464E-1,5.6615275E-1,-3.6413026E-1,-1.8648973E-1,-5.721528E-1,8.253547E-1,-4.5130736E-1,-4.5391166E-1,-1.7180954E-1,-2.2547545E-1,1.1716151E0,-3.4820455E-1,-5.402433E-1,4.330124E-2,9.174666E-1,-1.3063362E-1,6.810816E-1,-4.3469703E-1,2.7310696E-1,-3.0581075E-1,-2.0254979E-1,-1.5789303E-1,-2.3831385E-1,3.848018E-2,3.0101576E-1,-3.2069823E-1,5.464852E-1,-4.2765388E-1,-7.767789E-2,-3.7287655E-1,8.5341774E-2,-2.9254445E-1,-3.7239715E-1,5.08498E-1,-4.1419277E-1,3.6673272E-1,8.4139806E-1,-2.5428626E-1,4.2998528E-1,-5.475492E-1,9.552296E-2,-4.9516147E-1,1.9174248E-1,-4.2396855E-1,6.084416E-1],"categories":[],"categories_nodes":[],"categories_segments":[],"categories_sizes":[],"default_left":[1,1,1,1,1,1,1,1,1,1,1,1,1,1,1,0,1,1,0,1,1,1,1,1,1,1,1,1,0,1,1,1,1,1,1,1,1,1,1,1,1,1,1,1,1,1,1,1,1,1,0,1,1,1,1,1,1,0,0,0,0,0,0,0,0,0,0,0,0,0,0,0,0,0,0,0,0,0,0,0,0,0,0,0,0,0,0,0,0,0,0,0,0,0,0,0,0,0,0,0,0,0,0,0,0,0,0],"id":10,"left_children":[1,3,5,7,9,11,13,15,17,19,21,23,25,27,29,-1,31,33,-1,35,37,39,41,43,45,47,49,51,-1,53,55,57,59,61,63,65,67,69,71,73,75,77,79,81,83,85,87,89,91,93,-1,95,97,99,101,103,105,-1,-1,-1,-1,-1,-1,-1,-1,-1,-1,-1,-1,-1,-1,-1,-1,-1,-1,-1,-1,-1,-1,-1,-1,-1,-1,-1,-1,-1,-1,-1,-1,-1,-1,-1,-1,-1,-1,-1,-1,-1,-1,-1,-1,-1,-1,-1,-1,-1,-1],"loss_changes":[3.9590186E2,3.772998E1,7.422754E1,3.9939575E0,2.5100464E1,5.7750122E1,1.0962582E2,1.9048743E0,2.2662964E0,5.828369E0,1.1762817E1,2.5091614E1,4.095642E0,2.2245636E0,4.6355934E0,0E0,4.8816144E-1,1.1605225E0,0E0,1.2085712E1,5.093506E0,9.184814E0,2.2418628E0,1.9141663E1,6.4825745E0,2.1218185E0,3.4769745E0,2.0696335E0,0E0,5.153633E0,4.984908E0,8.6317337E-1,1.2089314E0,7.522583E-1,9.8922133E-1,8.3049583E-1,3.256814E0,5.030945E0,5.7477603E0,8.1397705E0,3.179216E0,2.9992857E0,1.9556016E0,1.146347E1,1.997583E1,4.079819E0,5.6599607E0,1.9001389E0,2.6840625E0,3.1980438E0,0E0,1.9081268E0,1.5245438E-2,3.2025595E0,1.0796852E0,1.5857882E0,2.5908384E0,0E0,0E0,0E0,0E0,0E0,0E0,0E0,0E0,0E0,0E0,0E0,0E0,0E0,0E0,0E0,0E0,0E0,0E0,0E0,0E0,0E0,0E0,0E0,0E0,0E0,0E0,0E0,0E0,0E0,0E0,0E0,0E0,0E0,0E0,0E0,0E0,0E0,0E0,0E0,0E0,0E0,0E0,0E0,0E0,0E0,0E0,0E0,0E0,0E0,0E0],"parents":[2147483647,0,0,1,1,2,2,3,3,4,4,5,5,6,6,7,7,8,8,9,9,10,10,11,11,12,12,13,13,14,14,16,16,17,17,19,19,20,20,21,21,22,22,23,23,24,24,25,25,26,26,27,27,29,29,30,30,31,31,32,32,33,33,34,34,35,35,36,36,37,37,38,38,39,39,40,40,41,41,42,42,43,43,44,44,45,45,46,46,47,47,48,48,49,49,51,51,52,52,53,53,54,54,55,55,56,56],"right_children":[2,4,6,8,10,12,14,16,18,20,22,24,26,28,30,-1,32,34,-1,36,38,40,42,44,46,48,50,52,-1,54,56,58,60,62,64,66,68,70,72,74,76,78,80,82,84,86,88,90,92,94,-1,96,98,100,102,104,106,-1,-1,-1,-1,-1,-1,-1,-1,-1,-1,-1,-1,-1,-1,-1,-1,-1,-1,-1,-1,-1,-1,-1,-1,-1,-1,-1,-1,-1,-1,-1,-1,-1,-1,-1,-1,-1,-1,-1,-1,-1,-1,-1,-1,-1,-1,-1,-1,-1,-1],"split_conditions":[3.3975E3,2.47E2,6.230805E5,5.4E1,1.089898E6,6.20277E5,6.231065E5,1.05E1,5E-1,3.02E2,5E-1,6.202535E5,1.062473E6,5E-1,6.23879E5,-1.6007312E-1,2.129582E6,5E-1,8.225688E-2,2.98E2,5E-1,5E-1,2.010687E6,1.040853E6,6.202545E5,5E-1,5E-1,5E-1,-1.2181166E-1,6.23561E5,6.240295E5,1.054846E6,3.427081E6,1.945E2,2.06E2,2.56E2,5E-1,5E-1,3.029E3,5.157994E6,4.618759E6,2.004819E6,2.129147E6,6.074415E5,6.16235E5,1.0787075E6,5E-1,5E-1,1.0072965E6,6.219975E5,2.0799893E-1,5E-1,1.041177E6,6.23553E5,5E-1,1.006969E6,5E-1,3.9508555E-2,-1.0571145E-1,1.7136103E-1,-1.0673944E-1,-1.5396288E-1,-1.6894393E-1,1.6984583E-1,-1.0923908E-1,-5.594692E-2,-1.7164585E-1,2.4760641E-1,-1.3539222E-1,-1.361735E-1,-5.1542863E-2,-6.764264E-2,3.5148454E-1,-1.0446137E-1,-1.62073E-1,1.2990372E-2,2.7523997E-1,-3.9190087E-2,2.0432448E-1,-1.3040912E-1,8.193209E-2,-9.174323E-2,-6.076494E-2,-4.736791E-2,-7.149416E-2,1.1544054E-2,9.030473E-2,-9.6209474E-2,1.6394556E-1,-1.2829617E-1,-2.3303367E-2,-1.1186297E-1,2.5602533E-2,-8.776334E-2,-1.11719154E-1,1.5254942E-1,-1.2425783E-1,1.1001982E-1,2.5241944E-1,-7.6285884E-2,1.289956E-1,-1.6426477E-1,2.865689E-2,-1.4854845E-1,5.7522748E-2,-1.2719058E-1,1.8253249E-1],"split_indices":[1,1,1,1,0,1,1,1,194,1,112,1,0,89,1,0,0,112,0,1,53,128,0,0,1,152,32,171,0,1,1,0,0,1,1,1,10,31,1,0,0,0,0,1,1,0,113,101,0,1,0,178,0,1,171,0,122,0,0,0,0,0,0,0,0,0,0,0,0,0,0,0,0,0,0,0,0,0,0,0,0,0,0,0,0,0,0,0,0,0,0,0,0,0,0,0,0,0,0,0,0,0,0,0,0,0,0],"split_type":[0,0,0,0,0,0,0,0,0,0,0,0,0,0,0,0,0,0,0,0,0,0,0,0,0,0,0,0,0,0,0,0,0,0,0,0,0,0,0,0,0,0,0,0,0,0,0,0,0,0,0,0,0,0,0,0,0,0,0,0,0,0,0,0,0,0,0,0,0,0,0,0,0,0,0,0,0,0,0,0,0,0,0,0,0,0,0,0,0,0,0,0,0,0,0,0,0,0,0,0,0,0,0,0,0,0,0],"sum_hessian":[3.85986E4,1.3645023E4,2.4953578E4,1.9575386E3,1.1687485E4,2.4234602E4,7.189762E2,2.559815E1,1.9319404E3,4.9908296E3,6.696656E3,2.1043031E4,3.1915708E3,3.4631003E2,3.7266617E2,7.441106E0,1.8157045E1,1.9291262E3,2.8142147E0,4.2119286E1,4.9487104E3,6.662899E3,3.3756733E1,2.0748027E4,2.950039E2,6.9442346E2,2.4971472E3,3.4442416E2,1.8858595E0,2.9006503E2,8.260113E1,1.3613088E1,4.5439577E0,1.926504E3,2.6222017E0,2.7939337E1,1.4179951E1,4.885295E3,6.341546E1,6.6300073E3,3.289149E1,2.0088339E1,1.3668394E1,4.324897E3,1.6423129E4,2.3661073E2,5.839317E1,6.4092615E2,5.349729E1,2.4946326E3,2.5146823E0,3.1917905E2,2.5245115E1,2.0691072E2,8.315433E1,5.04044E1,3.219673E1,8.599398E0,5.01369E0,3.2492435E0,1.2947143E0,6.219786E2,1.3045255E3,1.1516025E0,1.4705992E0,9.754923E0,1.8184414E1,1.2488228E1,1.6917228E0,4.819622E3,6.567288E1,6.131011E1,2.1053507E0,6.39874E3,2.3126695E2,2.9011724E1,3.8797674E0,6.136914E0,1.3951426E1,6.628876E0,7.039518E0,2.1100022E3,2.2148948E3,1.2290066E4,4.133063E3,1.157775E2,1.20833244E2,5.050949E1,7.883677E0,6.2451105E2,1.641512E1,3.3789165E1,1.9708124E1,1.764075E3,7.305577E2,3.176215E2,1.5575588E0,2.2985404E0,2.2946575E1,2.0070847E2,6.202261E0,8.07405E1,2.4138212E0,2.6613348E0,4.7743065E1,3.0430174E1,1.766558E0],"tree_param":{"num_deleted":"0","num_feature":"196","num_nodes":"107","size_leaf_vector":"0"}},{"base_weights":[-4.3519646E-1,-5.529154E-1,-3.7177715E-1,-5.5376536E-1,-2.5051227E-1,-4.545842E-1,-3.4577423E-1,-5.54437E-1,-2.433818E-1,-1.098713E-1,-5.57518E-1,-4.6410832E-1,-2.133629E-1,-3.0513355E-1,-4.1218916E-1,-5.5525625E-1,-3.030351E-1,5.3434783E-1,-3.4831005E-1,-4.7461832E-1,1.6625908E-1,-4.5572037E-1,-5.3847915E-1,-8.0137305E-2,-4.48915E-1,-3.194451E-1,1.997895E-1,-4.2677078E-1,-2.2906138E-1,-5.5592746E-1,-2.6693228E-1,-4.4012198E-1,1.7001763E-1,-3.7994063E-1,1.1029961E0,-4.10126E-1,2.5993395E-1,8.8861305E-1,-2.7708575E-1,-4.5966065E-1,-2.3462272E-1,-5.622546E-1,-4.8997992E-1,-1.0889769E-1,4.925411E-1,-4.8241138E-1,-1.5320201E-1,-3.2378036E-1,3.7648374E-1,1.071662E0,9.317373E-2,-4.2956957E-1,1.478593E-1,-7.3089056E-2,-3.479692E-1,-5.755643E-1,-5.468734E-1,6.734304E-1,-3.3727482E-1,8.444136E-2,-4.881224E-1,1.0500163E0,-5.2562505E-2,-3.089591E-1,-5.4091895E-1,-4.376982E-1,5.459968E-1,-4.6305278E-1,-2.2383057E-1,-2.813677E-1,1.5276326E-1,-8.8884346E-2,-5.673656E-1,-3.2736513E-1,-5.563779E-1,3.8906034E-2,-2.2357088E-1,1.3871086E-2,8.821308E-1,-5.144113E-1,-1.8924204E-1,-4.099104E-1,3.8366523E-1,-3.2712287E-1,4.6831116E-1,-4.5533168E-1,6.2464976E-1,1.3500881E0,8.8441825E-1,-1.9538842E-1,3.6944512E-1,-4.3208697E-1,1.3689587E-1,-1.9688076E-1,1.4697629E0,-2.1670264E-1,1.273598E-1,-4.0152916E-1,2.937298E-1],"categories":[],"categories_nodes":[],"categories_segments":[],"categories_sizes":[],"default_left":[1,1,1,1,1,1,1,1,1,1,0,1,1,1,1,1,1,1,1,0,1,1,1,1,1,1,1,1,1,1,1,1,1,0,0,1,0,0,1,1,1,1,1,1,1,1,1,1,1,1,1,1,1,1,1,0,0,0,0,0,0,0,0,0,0,0,0,0,0,0,0,0,0,0,0,0,0,0,0,0,0,0,0,0,0,0,0,0,0,0,0,0,0,0,0,0,0,0,0],"id":11,"left_children":[1,3,5,7,9,11,13,15,17,19,-1,21,23,25,27,29,31,33,35,-1,37,39,41,43,45,47,49,51,53,55,57,59,61,-1,-1,63,-1,-1,65,67,69,71,73,75,77,79,81,83,85,87,89,91,93,95,97,-1,-1,-1,-1,-1,-1,-1,-1,-1,-1,-1,-1,-1,-1,-1,-1,-1,-1,-1,-1,-1,-1,-1,-1,-1,-1,-1,-1,-1,-1,-1,-1,-1,-1,-1,-1,-1,-1,-1,-1,-1,-1,-1,-1],"loss_changes":[2.6764453E2,3.0893555E0,5.0054688E1,2.475586E0,1.5375073E0,1.2696533E1,4.7786377E1,2.4055176E0,2.5381637E0,2.7620068E0,0E0,3.0965576E0,6.6608667E0,7.966821E1,1.7888672E1,2.2617188E0,2.8496983E0,2.4055963E0,1.0842268E0,0E0,5.3389487E0,4.091858E0,3.4425354E-1,2.3187222E0,6.875782E-1,3.2442627E1,2.8181583E1,1.0095459E1,9.228029E0,1.894043E0,2.2676198E0,8.8356876E-1,2.079577E0,0E0,0E0,1.5031624E-1,0E0,0E0,1.6424574E0,3.6843872E0,1.6084623E0,8.0574036E-1,1.8108597E0,2.2420304E0,1.2479119E0,5.4611206E-1,1.4372382E0,2.8341797E1,1.4070538E1,5.292587E-1,2.1771734E1,8.911743E0,1.4406643E1,6.2771964E0,9.839001E0,0E0,0E0,0E0,0E0,0E0,0E0,0E0,0E0,0E0,0E0,0E0,0E0,0E0,0E0,0E0,0E0,0E0,0E0,0E0,0E0,0E0,0E0,0E0,0E0,0E0,0E0,0E0,0E0,0E0,0E0,0E0,0E0,0E0,0E0,0E0,0E0,0E0,0E0,0E0,0E0,0E0,0E0,0E0,0E0],"parents":[2147483647,0,0,1,1,2,2,3,3,4,4,5,5,6,6,7,7,8,8,9,9,11,11,12,12,13,13,14,14,15,15,16,16,17,17,18,18,20,20,21,21,22,22,23,23,24,24,25,25,26,26,27,27,28,28,29,29,30,30,31,31,32,32,35,35,38,38,39,39,40,40,41,41,42,42,43,43,44,44,45,45,46,46,47,47,48,48,49,49,50,50,51,51,52,52,53,53,54,54],"right_children":[2,4,6,8,10,12,14,16,18,20,-1,22,24,26,28,30,32,34,36,-1,38,40,42,44,46,48,50,52,54,56,58,60,62,-1,-1,64,-1,-1,66,68,70,72,74,76,78,80,82,84,86,88,90,92,94,96,98,-1,-1,-1,-1,-1,-1,-1,-1,-1,-1,-1,-1,-1,-1,-1,-1,-1,-1,-1,-1,-1,-1,-1,-1,-1,-1,-1,-1,-1,-1,-1,-1,-1,-1,-1,-1,-1,-1,-1,-1,-1,-1,-1,-1],"split_conditions":[2.685E3,5E-1,1.050116E6,5E-1,1.9395E3,6.23085E5,6.162435E5,5E-1,2.001393E6,4.4363095E6,-1.672554E-1,6.202775E5,6.23091E5,6.15945E5,6.22807E5,5E-1,3.4192875E6,2.0012895E6,2.1304705E6,-1.423855E-1,4.442654E6,6.202535E5,6.219555E5,5E-1,5E-1,5E-1,6.159535E5,5E-1,6.230915E5,1.057377E6,1.59E2,1.95E2,3.4245205E6,-1.1398219E-1,3.3089885E-1,2.115033E6,7.798019E-2,2.6658392E-1,4.6236225E6,5E-1,5E-1,1.000857E6,6.223675E5,1.016143E6,1.04525E6,6.24049E5,1.0328185E6,5E-1,3.288089E6,3.000862E6,6.162325E5,5E-1,4.6073065E6,6.23086E5,6.240475E5,-1.726693E-1,-1.6406202E-1,2.0202912E-1,-1.0118245E-1,2.5332408E-2,-1.4643672E-1,3.150049E-1,-1.5768752E-2,-9.268773E-2,-1.6227569E-1,-1.3130946E-1,1.6379905E-1,-1.3891584E-1,-6.714917E-2,-8.441031E-2,4.582898E-2,-2.6665306E-2,-1.7020968E-1,-9.8209545E-2,-1.6691338E-1,1.167181E-2,-6.707127E-2,4.1613257E-3,2.6463926E-1,-1.5432338E-1,-5.6772612E-2,-1.2297313E-1,1.1509957E-1,-9.8136865E-2,1.4049335E-1,-1.3659951E-1,1.8739493E-1,4.0502647E-1,2.653255E-1,-5.861653E-2,1.1083354E-1,-1.296261E-1,4.1068763E-2,-5.9064228E-2,4.409289E-1,-6.501079E-2,3.820794E-2,-1.2045875E-1,8.811895E-2],"split_indices":[1,82,0,112,1,1,1,25,0,0,0,1,1,1,1,150,0,0,0,0,0,1,1,97,172,29,1,120,1,0,1,1,0,0,0,0,0,0,0,101,172,0,1,0,0,1,0,150,0,0,1,150,0,1,1,0,0,0,0,0,0,0,0,0,0,0,0,0,0,0,0,0,0,0,0,0,0,0,0,0,0,0,0,0,0,0,0,0,0,0,0,0,0,0,0,0,0,0,0],"split_type":[0,0,0,0,0,0,0,0,0,0,0,0,0,0,0,0,0,0,0,0,0,0,0,0,0,0,0,0,0,0,0,0,0,0,0,0,0,0,0,0,0,0,0,0,0,0,0,0,0,0,0,0,0,0,0,0,0,0,0,0,0,0,0,0,0,0,0,0,0,0,0,0,0,0,0,0,0,0,0,0,0,0,0,0,0,0,0,0,0,0,0,0,0,0,0,0,0,0,0],"sum_hessian":[3.5876582E4,1.2558249E4,2.3318334E4,1.2522221E4,3.6027603E1,5.5685674E3,1.7749768E4,1.2494399E4,2.7822031E1,2.5639769E1,1.03878355E1,5.356167E3,2.1240048E2,1.1015032E4,6.734735E3,1.2452609E4,4.17895E1,2.8209083E0,2.5001122E1,1.0737515E1,1.4902253E1,4.819702E3,5.364645E2,1.3652417E2,7.587631E1,1.0711785E4,3.0324753E2,6.2367974E3,4.979374E2,1.2422762E4,2.9847557E1,3.245416E1,9.33534E0,1.2089608E0,1.6119477E0,2.2990332E1,2.010791E0,5.2857294E0,9.616524E0,4.7342515E3,8.545074E1,3.5288104E2,1.835834E2,1.307668E2,5.7573733E0,6.758894E1,8.28737E0,1.0646001E4,6.578403E1,3.2055496E1,2.7119205E2,6.206819E3,2.9978426E1,2.1609657E2,2.8184085E2,3.9005303E3,8.522231E3,1.4806149E0,2.8366943E1,2.6571229E0,2.9797037E1,1.1340913E0,8.201248E0,1.4859143E1,8.131187E0,8.438161E0,1.1783623E0,4.6661714E3,6.808027E1,7.649406E1,8.956684E0,3.9657862E0,3.4891528E2,5.494598E1,1.2863742E2,5.7419193E1,7.334761E1,3.0480213E0,2.7093523E0,6.025713E1,7.3318133E0,5.7665253E0,2.5208445E0,1.060185E4,4.41511E1,1.4924511E1,5.085952E1,1.0392221E1,2.1663275E1,1.3278865E2,1.384034E2,6.1795938E3,2.7225304E1,2.4452505E1,5.525921E0,1.2584941E2,9.024716E1,2.604744E2,2.1366444E1],"tree_param":{"num_deleted":"0","num_feature":"196","num_nodes":"99","size_leaf_vector":"0"}},{"base_weights":[2.1575266E-1,5.2900225E-1,1.936975E-1,2.0697169E-1,5.5396855E-1,2.522993E-1,1.5620586E-1,3.18354E-1,-1.08617745E-1,4.8922333E-1,5.976733E-1,2.4482363E-1,5.809529E-1,1.0726258E-1,2.5083807E-1,2.8743556E-1,7.5162023E-1,9.717236E-3,-5.3885466E-1,4.972818E-1,-7.669244E-2,5.994445E-1,-4.2844146E-1,2.5017348E-1,-5.761345E-1,7.350862E-1,3.847595E-1,1.1839789E-1,-4.7451162E-1,2.6891744E-1,3.0147284E-2,2.9873195E-1,-5.1402575E-1,-1.8663736E-1,2.3352012E-1,4.5679423E-1,5.472854E-1,-3.412278E-1,3.460998E-1,6.009377E-1,-2.7724993E-1,2.5886002E-1,-2.1315118E-2,-2.1576428E-1,-7.133383E-1,7.741477E-1,1.0677896E-3,-3.2373253E-2,4.9739075E-1,1.1009169E-1,8.1501806E-1,-4.9824846E-1,1.0857103E0,2.4187322E-1,5.07642E-1,-6.6392547E-1,4.1093844E-1,3.095555E-1,-4.8719183E-1,-2.6154736E-1,1.9906056E-1,4.913282E-1,1.2722965E-1,4.8506945E-1,-1.1875099E-1,5.5202234E-1,1.09091334E-1,-7.795089E-1,-1.1977138E-1,-1.727484E-1,6.1429936E-1,5.7100767E-1,6.514516E-1,1.4295708E-1,-5.8434343E-1,-2.3641665E-2,2.6582575E-1,-4.4450745E-2,4.2530212E-1,-3.063904E-1,3.9897695E-1,1.29463E0,7.3902005E-1,-4.228228E-1,6.353117E-1,1.6947855E-1,-6.713049E-1,7.360394E-1,2.318562E-1,9.41995E-2,3.8686225E-1,8.293677E-1,-2.9257005E-1,-5.329837E-1,-8.566771E-2,4.3264967E-1,2.2058135E-1,6.0351014E-1,2.4558839E-1,8.2649577E-1,3.4791803E-1],"categories":[],"categories_nodes":[],"categories_segments":[],"categories_sizes":[],"default_left":[1,1,1,1,1,1,1,1,1,1,1,1,1,1,1,1,0,1,0,1,1,1,0,1,1,1,1,1,1,1,1,1,0,1,1,1,1,1,1,1,1,1,1,1,0,1,1,1,1,1,1,1,0,1,1,0,1,0,0,0,0,0,0,0,0,0,0,0,0,0,0,0,0,0,0,0,0,0,0,0,0,0,0,0,0,0,0,0,0,0,0,0,0,0,0,0,0,0,0,0,0],"id":12,"left_children":[1,3,5,7,9,11,13,15,17,19,21,23,25,27,29,31,-1,33,-1,35,37,39,-1,41,43,45,47,49,51,53,55,57,-1,59,61,63,65,67,69,71,73,75,77,79,-1,81,83,85,87,89,91,93,-1,95,97,-1,99,-1,-1,-1,-1,-1,-1,-1,-1,-1,-1,-1,-1,-1,-1,-1,-1,-1,-1,-1,-1,-1,-1,-1,-1,-1,-1,-1,-1,-1,-1,-1,-1,-1,-1,-1,-1,-1,-1,-1,-1,-1,-1,-1,-1],"loss_changes":[3.6944287E2,2.8167847E1,1.0975415E2,8.987493E0,8.943848E0,4.775647E1,1.411352E2,2.309229E0,3.4258978E0,6.0620117E0,3.7902222E0,8.387207E1,1.28068695E1,1.3020476E2,4.144287E1,1.761239E0,0E0,2.402385E0,0E0,2.386963E0,2.2891653E0,2.7078857E0,0E0,4.467395E1,5.9637604E0,6.918167E0,9.062265E0,1.13978485E2,1.4521866E1,6.1869507E1,2.0847446E2,1.6457224E0,0E0,8.942081E-1,6.370529E-1,1.1868744E1,1.1389313E0,1.1144663E0,1.2148381E0,2.5584106E0,5.977726E-1,3.6123413E1,6.0963187E0,2.1028655E0,0E0,3.2323608E0,3.8159454E0,5.5143824E0,9.440552E0,8.5657104E1,3.932022E0,5.2931976E0,0E0,3.494699E1,2.4376068E1,0E0,1.3050209E1,0E0,0E0,0E0,0E0,0E0,0E0,0E0,0E0,0E0,0E0,0E0,0E0,0E0,0E0,0E0,0E0,0E0,0E0,0E0,0E0,0E0,0E0,0E0,0E0,0E0,0E0,0E0,0E0,0E0,0E0,0E0,0E0,0E0,0E0,0E0,0E0,0E0,0E0,0E0,0E0,0E0,0E0,0E0,0E0],"parents":[2147483647,0,0,1,1,2,2,3,3,4,4,5,5,6,6,7,7,8,8,9,9,10,10,11,11,12,12,13,13,14,14,15,15,17,17,19,19,20,20,21,21,23,23,24,24,25,25,26,26,27,27,28,28,29,29,30,30,31,31,33,33,34,34,35,35,36,36,37,37,38,38,39,39,40,40,41,41,42,42,43,43,45,45,46,46,47,47,48,48,49,49,50,50,51,51,53,53,54,54,56,56],"right_children":[2,4,6,8,10,12,14,16,18,20,22,24,26,28,30,32,-1,34,-1,36,38,40,-1,42,44,46,48,50,52,54,56,58,-1,60,62,64,66,68,70,72,74,76,78,80,-1,82,84,86,88,90,92,94,-1,96,98,-1,100,-1,-1,-1,-1,-1,-1,-1,-1,-1,-1,-1,-1,-1,-1,-1,-1,-1,-1,-1,-1,-1,-1,-1,-1,-1,-1,-1,-1,-1,-1,-1,-1,-1,-1,-1,-1,-1,-1,-1,-1,-1,-1,-1,-1],"split_conditions":[2.47E2,1.45E2,1.34805E4,1.125E2,1.8099155E6,8.5925E3,6.172515E5,5.171086E6,1.295E2,1.0906455E6,5E-1,8.408E3,3.1234245E6,6.171965E5,6.23086E5,5E-1,2.2548608E-1,1.26E2,-1.6165641E-1,2.195E2,5E-1,5E-1,-1.2853244E-1,5E-1,8.571E3,5E-1,3.332374E6,6.171155E5,5E-1,6.223905E5,6.23091E5,5E-1,-1.5420774E-1,5E-1,2.002016E6,2.17E2,5E-1,2.03E2,1.0907405E6,4.05042E6,5.126275E6,3.995E2,5.64E3,3.3244505E6,-2.140015E-1,8.7935E3,1.0107355E6,5E-1,1.0973E4,5.001059E6,4.62345E6,6.172325E5,3.257131E-1,6.17785E5,6.2275E5,-1.9917765E-1,6.23198E5,9.286665E-2,-1.4615755E-1,-7.846421E-2,5.971817E-2,1.4739847E-1,3.8168896E-2,1.4552084E-1,-3.5625298E-2,1.656067E-1,3.27274E-2,-2.3385267E-1,-3.5931416E-2,-5.182452E-2,1.8428981E-1,1.713023E-1,1.9543548E-1,4.2887125E-2,-1.7530304E-1,-7.0924996E-3,7.974773E-2,-1.3335224E-2,1.2759064E-1,-9.191713E-2,1.1969309E-1,3.8838902E-1,2.2170602E-1,-1.2684685E-1,1.9059353E-1,5.0843567E-2,-2.0139147E-1,2.2081183E-1,6.955686E-2,2.8259851E-2,1.1605868E-1,2.4881032E-1,-8.777102E-2,-1.5989512E-1,-2.5700314E-2,1.2979491E-1,6.617441E-2,1.8105304E-1,7.367652E-2,2.4794874E-1,1.04375415E-1],"split_indices":[1,1,1,1,0,1,1,0,1,0,150,1,0,1,1,101,0,1,0,1,109,4,0,171,1,181,0,1,54,1,1,172,0,152,0,1,81,1,0,0,0,1,1,0,0,1,0,30,1,0,0,1,0,1,1,0,1,0,0,0,0,0,0,0,0,0,0,0,0,0,0,0,0,0,0,0,0,0,0,0,0,0,0,0,0,0,0,0,0,0,0,0,0,0,0,0,0,0,0,0,0],"split_type":[0,0,0,0,0,0,0,0,0,0,0,0,0,0,0,0,0,0,0,0,0,0,0,0,0,0,0,0,0,0,0,0,0,0,0,0,0,0,0,0,0,0,0,0,0,0,0,0,0,0,0,0,0,0,0,0,0,0,0,0,0,0,0,0,0,0,0,0,0,0,0,0,0,0,0,0,0,0,0,0,0,0,0,0,0,0,0,0,0,0,0,0,0,0,0,0,0,0,0,0,0],"sum_hessian":[5.3488316E4,3.5167603E3,4.9971555E4,2.5369809E2,3.263062E3,1.9494572E4,3.0476982E4,1.8751047E2,6.618762E1,1.3199092E3,1.9431528E3,1.906271E4,4.318616E2,2.0089127E4,1.0387857E4,1.7657338E2,1.0937093E1,5.2676556E1,1.3511067E1,1.3014976E3,1.8411648E1,1.9402196E3,2.9332998E0,1.8939982E4,1.22728966E2,2.403171E2,1.9154451E2,1.9712617E4,3.7650806E2,9.601101E3,7.8675696E2,1.7473776E2,1.83562E0,2.8147377E1,2.452918E1,7.2478186E2,5.767157E2,1.144413E1,6.967518E0,1.9372346E3,2.9850068E0,1.8352812E4,5.871689E2,3.4551342E1,8.817763E1,2.2812267E2,1.2194424E1,4.08751E1,1.506694E2,1.9481486E4,2.3113087E2,3.7153625E2,4.9718056E0,8.625916E3,9.751844E2,2.7846033E2,5.0829666E2,1.729619E2,1.7758639E0,2.3839224E1,4.3081527E0,6.103238E0,1.8425941E1,6.909922E2,3.378968E1,5.70291E2,6.4246793E0,2.9956207E0,8.448509E0,2.4955745E0,4.471943E0,1.224191E3,7.1304346E2,1.4860606E0,1.4989462E0,4.4158344E2,1.7911229E4,5.5910657E2,2.8062315E1,3.054931E1,4.0020328E0,1.2155829E1,2.1596684E2,7.509121E0,4.6853027E0,3.1620327E1,9.254772E0,7.841877E1,7.225063E1,1.842487E4,1.0566173E3,2.2842268E2,2.7081952E0,3.424163E2,2.9119951E1,8.641107E2,7.761805E3,7.130305E2,2.6215387E2,6.533858E1,4.4295807E2],"tree_param":{"num_deleted":"0","num_feature":"196","num_nodes":"101","size_leaf_vector":"0"}},{"base_weights":[1.8330109E-1,-6.216377E-2,1.9394022E-1,2.887556E-1,-1.1270982E-1,2.3771603E-1,1.5508217E-1,3.0566972E-1,-4.8355806E-1,-1.7367631E-2,-2.1142663E-1,2.5909504E-1,1.5097901E-1,1.626256E-1,-3.375961E-2,2.3050337E-1,4.5378128E-1,3.5677724E-2,-8.826304E-2,-2.1839365E-1,7.1247995E-1,2.5219727E-1,8.377756E-1,1.8506572E-1,6.706635E-2,2.8865272E-1,1.5674338E-1,-5.4408324E-1,-2.3841256E-2,3.3221656E-1,1.628336E-1,4.904265E-1,1.05933465E-1,-6.263905E-4,5.668653E-1,-1.0818912E-1,1.7095442E-1,-2.3271674E-1,8.933394E-2,2.4092421E-1,3.7858334E-1,9.5024234E-1,3.219232E-1,1.4360751E-1,3.1949767E-1,4.2540748E-2,3.7182796E-1,1.9150035E-1,3.4779367E-1,-1.6201653E-1,1.6072902E-1,-2.4886677E-1,-5.791419E-1,7.578904E-2,-8.980771E-2,2.830406E-1,9.0780973E-1,-5.9752315E-1,1.9405247E-1,5.047761E-1,-3.202076E-1,-1.4134164E-1,7.149507E-1,-1.1971677E-2,6.261095E-1,2.559774E-1,6.400079E-1,-2.392058E-1,-6.659165E-2,2.5347248E-1,-4.5882186E-1,-2.3640254E-1,8.984208E-1,-6.82311E-2,1.0237333E0,2.5825566E-1,1.681037E-1,4.4573233E-1,3.153721E-1,9.7746825E-1,3.1763115E-3,-2.0537575E-1,8.546243E-1,-8.751563E-2,1.5868478E-1,6.217865E-1,1.842656E-1,-3.2767418E-1,5.082176E-2,6.703845E-1,2.2743408E-1,1.7712592E-1,1.3342669E0,5.0696677E-1,2.9583836E-1,1.727655E-1,-3.4897992E-1,1.5712214E-1,3.7143615E-1,-4.2609054E-1,7.245832E-2,2.9082235E-2,3.163803E-1,-2.530525E-1,-4.3610547E-2],"categories":[],"categories_nodes":[],"categories_segments":[],"categories_sizes":[],"default_left":[1,1,1,1,1,1,1,1,0,1,1,1,1,1,1,1,1,1,1,1,0,1,1,1,1,1,1,1,1,1,1,1,1,1,1,1,1,1,1,1,1,1,1,1,1,1,1,1,1,1,1,1,0,1,1,0,0,0,0,0,0,0,0,0,0,0,0,0,0,0,0,0,0,0,0,0,0,0,0,0,0,0,0,0,0,0,0,0,0,0,0,0,0,0,0,0,0,0,0,0,0,0,0,0,0],"id":13,"left_children":[1,3,5,7,9,11,13,15,-1,17,19,21,23,25,27,29,31,33,35,37,-1,39,41,43,45,47,49,51,53,55,57,59,61,63,65,67,69,71,73,75,77,79,81,83,85,87,89,91,93,95,97,99,-1,101,103,-1,-1,-1,-1,-1,-1,-1,-1,-1,-1,-1,-1,-1,-1,-1,-1,-1,-1,-1,-1,-1,-1,-1,-1,-1,-1,-1,-1,-1,-1,-1,-1,-1,-1,-1,-1,-1,-1,-1,-1,-1,-1,-1,-1,-1,-1,-1,-1,-1,-1],"loss_changes":[1.3636475E2,3.8518692E1,8.50885E1,3.7200317E0,1.7853395E1,4.359485E1,3.7774292E1,2.8814163E0,0E0,3.6368282E0,6.1551476E0,7.513501E1,1.3303345E1,1.8854858E1,5.146018E0,1.184494E0,1.0858574E0,1.0672409E1,2.1559787E0,4.1015663E0,0E0,2.6488037E1,1.2569061E1,1.8401695E1,1.0047586E1,6.45887E0,3.0975159E1,5.6513786E-2,6.5847225E0,1.7507706E0,2.727569E0,1.0977821E0,1.5742946E0,3.697861E0,6.412325E-1,2.081746E0,1.6715739E0,3.901886E0,6.238638E0,2.1576477E1,6.336441E0,4.6815796E0,1.1758177E1,8.83585E0,3.1745193E1,3.8403277E0,4.164962E0,6.859602E0,5.6781464E0,1.8921167E1,1.8227295E1,2.479158E-1,0E0,4.4771724E0,4.5335884E0,0E0,0E0,0E0,0E0,0E0,0E0,0E0,0E0,0E0,0E0,0E0,0E0,0E0,0E0,0E0,0E0,0E0,0E0,0E0,0E0,0E0,0E0,0E0,0E0,0E0,0E0,0E0,0E0,0E0,0E0,0E0,0E0,0E0,0E0,0E0,0E0,0E0,0E0,0E0,0E0,0E0,0E0,0E0,0E0,0E0,0E0,0E0,0E0,0E0,0E0],"parents":[2147483647,0,0,1,1,2,2,3,3,4,4,5,5,6,6,7,7,9,9,10,10,11,11,12,12,13,13,14,14,15,15,16,16,17,17,18,18,19,19,21,21,22,22,23,23,24,24,25,25,26,26,27,27,28,28,29,29,30,30,31,31,32,32,33,33,34,34,35,35,36,36,37,37,38,38,39,39,40,40,41,41,42,42,43,43,44,44,45,45,46,46,47,47,48,48,49,49,50,50,51,51,53,53,54,54],"right_children":[2,4,6,8,10,12,14,16,-1,18,20,22,24,26,28,30,32,34,36,38,-1,40,42,44,46,48,50,52,54,56,58,60,62,64,66,68,70,72,74,76,78,80,82,84,86,88,90,92,94,96,98,100,-1,102,104,-1,-1,-1,-1,-1,-1,-1,-1,-1,-1,-1,-1,-1,-1,-1,-1,-1,-1,-1,-1,-1,-1,-1,-1,-1,-1,-1,-1,-1,-1,-1,-1,-1,-1,-1,-1,-1,-1,-1,-1,-1,-1,-1,-1,-1,-1,-1,-1,-1,-1],"split_conditions":[2.345E2,1.45E2,2.0168275E6,5.171086E6,2.0946755E6,6.1604E5,6.21967E5,1.19E2,-1.4506742E-1,2.195E2,5E-1,6.15885E5,6.20933E5,6.955E2,6.220025E5,1.034195E6,4.4606525E6,2.175E2,5E-1,5E-1,2.13744E-1,5E-1,6.159055E5,6.20251E5,2.0084675E6,4.765E2,7.575E2,3.0614805E6,6.22671E5,1.025749E6,1.035064E6,5E-1,4.6235785E6,5E-1,1.0202555E6,1.0179015E6,1.0878035E6,5E-1,4.618021E6,6.07504E5,4.0665E3,5E-1,6.15957E5,6.16399E5,6.202775E5,6.21037E5,2.0107465E6,5E-1,5.23E2,7.46E2,5E-1,3.024481E6,-1.7374258E-1,6.225785E5,6.22687E5,8.491219E-2,2.7234292E-1,-1.7925695E-1,5.8215745E-2,1.5143284E-1,-9.606228E-2,-4.2402495E-2,2.1448521E-1,-3.5915032E-3,1.8783285E-1,7.679322E-2,1.9200239E-1,-7.176174E-2,-1.9977495E-2,7.604174E-2,-1.3764657E-1,-7.0920765E-2,2.6952624E-1,-2.046933E-2,3.0712E-1,7.74767E-2,5.043111E-2,1.337197E-1,9.461164E-2,2.932405E-1,9.5289346E-4,-6.1612725E-2,2.563873E-1,-2.625469E-2,4.7605436E-2,1.8653595E-1,5.5279683E-2,-9.830226E-2,1.5246528E-2,2.0111537E-1,6.823023E-2,5.3137776E-2,4.002801E-1,1.5209004E-1,8.875151E-2,5.182965E-2,-1.0469398E-1,4.7136642E-2,1.11430846E-1,-1.2782717E-1,2.1737497E-2,8.724671E-3,9.491409E-2,-7.5915754E-2,-1.3083165E-2],"split_indices":[1,1,0,0,0,1,1,1,0,1,150,1,1,1,1,0,0,1,86,87,0,171,1,1,0,1,1,0,1,0,0,150,0,176,0,0,0,40,0,1,1,31,1,1,1,1,0,141,1,1,19,0,0,1,1,0,0,0,0,0,0,0,0,0,0,0,0,0,0,0,0,0,0,0,0,0,0,0,0,0,0,0,0,0,0,0,0,0,0,0,0,0,0,0,0,0,0,0,0,0,0,0,0,0,0],"split_type":[0,0,0,0,0,0,0,0,0,0,0,0,0,0,0,0,0,0,0,0,0,0,0,0,0,0,0,0,0,0,0,0,0,0,0,0,0,0,0,0,0,0,0,0,0,0,0,0,0,0,0,0,0,0,0,0,0,0,0,0,0,0,0,0,0,0,0,0,0,0,0,0,0,0,0,0,0,0,0,0,0,0,0,0,0,0,0,0,0,0,0,0,0,0,0,0,0,0,0,0,0,0,0,0,0],"sum_hessian":[5.2210805E4,2.1687512E3,5.0042055E4,2.724608E2,1.8962903E3,2.352955E4,2.6512502E4,2.672129E2,5.247905E0,9.652313E2,9.3105896E2,1.8875191E4,4.6543594E3,2.5494256E4,1.01824695E3,1.7895157E2,8.8261314E1,5.5240656E2,4.128248E2,9.248485E2,6.2105055E0,1.8654271E4,2.2091988E2,3.308988E3,1.3453715E3,1.134718E3,2.4359537E4,1.8385998E1,9.9986096E2,6.9930664E1,1.09020905E2,7.947849E1,8.782824E0,5.180024E2,3.440415E1,3.838972E2,2.8927599E1,8.839491E2,4.0899364E1,1.7129318E4,1.5249519E3,1.8068471E2,4.023517E1,2.5306235E3,7.783646E2,1.2462217E3,9.914976E1,4.3097763E2,7.037404E2,3.0033054E2,2.4059207E4,2.8113356E0,1.5574662E1,3.9824127E2,6.016197E2,6.5800705E1,4.129965E0,3.5842488E0,1.0543666E2,7.84668E1,1.0116901E0,6.792734E0,1.9900889E0,5.0975558E2,8.24679E0,7.4096413E0,2.6994507E1,9.1368774E1,2.925284E2,2.6104685E1,2.8229144E0,8.818666E2,2.0825582E0,3.5791008E1,5.1083546E0,1.38342E4,3.2951187E3,7.3650964E2,7.884423E2,1.756044E2,5.0803065E0,2.0528908E1,1.970626E1,1.5468066E2,2.3759429E3,2.3947044E2,5.3889417E2,2.6421904E1,1.2197998E3,3.113357E1,6.801618E1,4.267645E2,4.2131157E0,1.7102403E2,5.327164E2,1.07648315E2,1.926822E2,2.365601E4,4.0319754E2,1.6018233E0,1.2095122E0,3.3443677E2,6.3804485E1,1.317132E2,4.699065E2],"tree_param":{"num_deleted":"0","num_feature":"196","num_nodes":"105","size_leaf_vector":"0"}},{"base_weights":[-2.349062E-1,-3.7063357E-1,-1.6503337E-1,-5.085145E-1,-3.491979E-1,-1.7344272E-1,1.06431425E-1,-1.1993338E-1,-5.143292E-1,-4.0459672E-1,-3.0912122E-1,-1.5502271E-1,-2.975763E-1,4.4758838E-1,-2.2868884E-1,-5.088897E-1,4.1405678E-2,-5.15807E-1,2.1444008E-1,-5.1870164E-2,-4.0780982E-1,-1.7967789E-1,-3.2128662E-1,-1.5904327E-1,1.1882911E-1,-3.2413846E-1,-2.4226749E-1,4.5282435E-1,-4.2820716E-1,-2.8093714E-1,-2.1639153E-2,-3.6397532E-1,8.83883E-2,-4.1791862E-1,-5.240557E-1,2.5494075E-1,6.723936E-2,-4.155209E-1,5.397705E-1,-4.1168988E-1,-1.2532139E-1,-2.0326427E-1,3.732835E-1,2.018294E-1,-3.2439247E-1,-1.4943565E-1,-2.5734714E-1,1.8319918E-1,-1.5488411E-1,-3.2853132E-1,7.7310004E-3,1.5432732E0,-2.4598548E-1,4.2701283E-1,7.324246E-1,-2.004593E-1,-4.7101697E-1,2.8390118E-1,-2.2042459E-1,6.0243714E-1,-1.0708586E-2,-4.4448236E-1,3.700487E-1,-5.2469265E-1,1.6473597E-1,-1.545329E-1,-5.4948914E-1,-4.3957534E-1,6.8128926E-1,-4.1569296E-1,-1.3526227E-1,-2.8177524E-1,4.1028875E-1,-2.2095086E-1,5.762103E-1,-8.8620156E-2,5.423663E-1,-1.9749409E-1,1.2466738E0,-3.2648233E-1,3.0516565E-1,-1.5656821E-1,1.8631251E-1,-3.6057994E-1,-2.1631846E-1,1.9698507E-1,-5.020784E-1,-2.6978984E-1,4.203463E-1,-3.311714E-1,2.0468004E-1,-4.4704378E-1,2.653321E-1,-2.2155409E-1,-3.9194462E-1,4.5953554E-1,-2.3420778E-1,8.108912E-1,-4.5738494E-1,-2.2156665E-1,3.8218948E-1,-4.9168885E-1,4.1352895E-1,3.271638E-1,-3.9104736E-1,-7.1568795E-2,-4.2341706E-1],"categories":[],"categories_nodes":[],"categories_segments":[],"categories_sizes":[],"default_left":[1,1,1,1,1,1,1,1,1,1,1,1,1,1,1,0,1,1,1,1,1,1,1,1,1,1,1,1,0,1,1,0,1,1,1,0,0,1,1,1,1,1,1,1,1,1,1,1,1,1,1,0,1,1,1,1,1,1,1,0,0,0,0,0,0,0,0,0,0,0,0,0,0,0,0,0,0,0,0,0,0,0,0,0,0,0,0,0,0,0,0,0,0,0,0,0,0,0,0,0,0,0,0,0,0,0,0],"id":14,"left_children":[1,3,5,7,9,11,13,15,17,19,21,23,25,27,29,-1,31,33,35,37,39,41,43,45,47,49,51,53,-1,55,57,-1,59,61,63,-1,-1,65,67,69,71,73,75,77,79,81,83,85,87,89,91,-1,93,95,97,99,101,103,105,-1,-1,-1,-1,-1,-1,-1,-1,-1,-1,-1,-1,-1,-1,-1,-1,-1,-1,-1,-1,-1,-1,-1,-1,-1,-1,-1,-1,-1,-1,-1,-1,-1,-1,-1,-1,-1,-1,-1,-1,-1,-1,-1,-1,-1,-1,-1,-1],"loss_changes":[3.397583E2,3.58114E1,5.40224E1,3.6351318E0,2.3279175E1,5.24209E1,8.143829E1,1.6166644E0,1.846405E0,4.9901123E0,9.580994E0,2.2021088E1,4.275757E0,1.8120499E0,3.8835106E0,0E0,3.9206874E-1,1.079956E0,6.5138787E-3,9.058458E0,4.7509155E0,6.9635773E0,9.153809E0,1.8562256E1,5.132754E0,2.9172516E0,6.78957E0,2.2222824E0,0E0,4.296129E0,4.528694E0,0E0,9.1005623E-1,2.8848495E0,7.3568726E-1,0E0,0E0,8.239775E-1,2.526081E0,4.7261353E0,5.2109118E0,7.118952E0,1.7629104E0,1.4278479E1,7.416321E0,4.2998993E1,7.342842E0,2.319058E0,3.7951405E0,2.84552E0,3.292875E0,0E0,3.3522453E0,7.074604E0,3.0119057E0,2.585928E0,1.7508526E0,9.8701644E-1,1.3328145E0,0E0,0E0,0E0,0E0,0E0,0E0,0E0,0E0,0E0,0E0,0E0,0E0,0E0,0E0,0E0,0E0,0E0,0E0,0E0,0E0,0E0,0E0,0E0,0E0,0E0,0E0,0E0,0E0,0E0,0E0,0E0,0E0,0E0,0E0,0E0,0E0,0E0,0E0,0E0,0E0,0E0,0E0,0E0,0E0,0E0,0E0,0E0,0E0],"parents":[2147483647,0,0,1,1,2,2,3,3,4,4,5,5,6,6,7,7,8,8,9,9,10,10,11,11,12,12,13,13,14,14,16,16,17,17,18,18,19,19,20,20,21,21,22,22,23,23,24,24,25,25,26,26,27,27,29,29,30,30,32,32,33,33,34,34,37,37,38,38,39,39,40,40,41,41,42,42,43,43,44,44,45,45,46,46,47,47,48,48,49,49,50,50,52,52,53,53,54,54,55,55,56,56,57,57,58,58],"right_children":[2,4,6,8,10,12,14,16,18,20,22,24,26,28,30,-1,32,34,36,38,40,42,44,46,48,50,52,54,-1,56,58,-1,60,62,64,-1,-1,66,68,70,72,74,76,78,80,82,84,86,88,90,92,-1,94,96,98,100,102,104,106,-1,-1,-1,-1,-1,-1,-1,-1,-1,-1,-1,-1,-1,-1,-1,-1,-1,-1,-1,-1,-1,-1,-1,-1,-1,-1,-1,-1,-1,-1,-1,-1,-1,-1,-1,-1,-1,-1,-1,-1,-1,-1,-1,-1,-1,-1,-1,-1],"split_conditions":[3.3975E3,2.47E2,6.23086E5,5.4E1,1.089898E6,6.20277E5,6.23091E5,1.05E1,5E-1,3.02E2,2.027093E6,6.202535E5,3.321768E6,5E-1,6.23913E5,-1.5266691E-1,1.0023005E6,1.405E2,1.0838175E6,2.98E2,5E-1,5E-1,3.02E2,6.185555E5,6.202545E5,5E-1,3.3218545E6,3.3853285E6,-1.2846215E-1,6.23561E5,6.23956E5,-1.091926E-1,1.006364E6,1.345E2,5.1747315E6,7.648223E-2,2.0171808E-2,2.56E2,1.008976E6,5E-1,1.0839215E6,5E-1,2.004819E6,2.98E2,5E-1,6.182435E5,1.083389E6,5E-1,5E-1,5E-1,6.207905E5,4.6298197E-1,6.226755E5,3.037448E6,5E-1,6.23553E5,5E-1,5E-1,6.240955E5,1.8073115E-1,-3.212576E-3,-1.3334471E-1,1.1101461E-1,-1.574078E-1,4.9420793E-2,-4.635987E-2,-1.6484675E-1,-1.3187261E-1,2.0438679E-1,-1.2470789E-1,-4.0578682E-2,-8.4532574E-2,1.2308663E-1,-6.628526E-2,1.728631E-1,-2.6586048E-2,1.627099E-1,-5.9248228E-2,3.7400216E-1,-9.79447E-2,9.1549695E-2,-4.6970468E-2,5.5893756E-2,-1.0817399E-1,-6.489554E-2,5.909552E-2,-1.5062353E-1,-8.093695E-2,1.261039E-1,-9.935142E-2,6.1404016E-2,-1.3411313E-1,7.9599634E-2,-6.646623E-2,